tree
version=v4
num_class=1
num_tree_per_iteration=1
label_index=0
max_feature_idx=5
objective=binary sigmoid:1
feature_names=amount tx_count_1h tx_amount_1h device_risk merchant_risk shared_device_count
feature_infos=[-4.4654498430359535:3.5425403230986814] [-6.1748267458745874:4.6229749470270498] [-4.4785222888054772:3.367438685067929] [-4.9986862910591521:4.8262324153741076] [-5.3137976493398202:5.5332379928326043] [-6.0215753537044359:3.9448392280409053]
tree_sizes=3279 3351 3355 3343 3357 3365 3351 3364 3382 3369 3384 3376 3381 3388 3382 3385 3384 3381 3386 3386 3390 3388 3407 3395 3394 3401 3415 3405 3376 3411 3394 3393 3399 3397 3391 3384 3394 3390 3403 3391 3392 3393 3407 3408 3390 3414 3401 3401 3404 3392 3407 3408 3412 3379 3406 3408 3400 3414 3405 3417 3417 3418 3407 3429 3412 3436 3418 3430 3433 3435 3415 3417 3428 3420 3420 3412 3450 3417 3415 3439 3429 3425 3448 3416 3439 3426 3418 3413 3419 3446 3425 3436 3415 3428 3427 3450 3417 3413 3443 3423

Tree=0
num_leaves=31
num_cat=0
split_feature=5 3 1 4 3 3 1 5 1 4 1 4 1 4 3 1 2 5 1 5 1 3 3 4 3 3 4 3 4 2
split_gain=364.976 226.749 123.564 380.231 96.9465 201.6 164.989 92.7116 74.3042 67.5244 29.8666 17.648 21.0495 15.9456 34.5797 30.9902 39.309 29.7283 57.4776 19.7593 25.9292 14.3698 9.27283 7.45916 158.098 8.73957 15.8496 12.7785 13.664 3.65369
threshold=0.82111887405031236 2.5477862406732483 1.3287518154704874 -0.37755117363255314 -0.44370749283033462 -2.3672389819003405 -0.090315811525227704 1.3896233741485196 1.7735146521925313 1.825011621619397 1.1100500544635445 0.72734807854500561 0.74015944577406012 0.28803217441045215 1.551175126554748 -1.4309595198614529 0.039460735207496593 -2.695582991387202 -0.66496091597395568 0.28837638028064211 -1.0104823273533106 -0.41528979710362679 1.7402408303334931 -2.1432380140950671 -0.44370749283033462 0.42827073475741462 -1.0350866244826882 1.1981076577399545 -1.6251535027205504 0.35306231651626591
decision_type=2 2 2 2 2 2 2 2 2 2 2 2 2 2 2 2 2 2 2 2 2 2 2 2 2 2 2 2 2 2
left_child=1 2 13 -4 5 -2 7 -6 -5 11 -7 -8 -13 14 17 -16 -17 18 -1 23 -21 -22 -18 24 -19 -25 27 28 -27 -28
right_child=4 -3 3 8 6 10 9 -9 -10 -11 -12 12 -14 -15 15 16 22 19 -20 20 21 -23 -24 25 -26 26 29 -29 -30 -31
leaf_value=-2.9010255247285901 -2.923948027008958 -2.3151533340921202 -2.9094529152728428 -2.4690245202139582 -2.6775311274950004 -2.0790900858182453 -2.9146492760839031 -2.0239906548710245 -1.9382804289531261 -2.431114227981042 -2.3932039357481254 -2.5789643676894172 -2.8845213230867248 -2.9137865053795164 -2.8957860956359345 -2.8382378010910596 -2.6423287132787205 -2.296705010064338 -2.472183711233368 -2.5789643676894167 -2.7268145073977919 -2.9100653847828197 -2.431114227981042 -2.9136932233572144 -2.9163950185947374 -2.8481274425431251 -2.9186487388473679 -2.923948027008958 -2.628247747592209 -2.8665304970251233
leaf_weight=2.1812627017498021 1.4710841476917265 1.7247193455696095 6.8988773822784424 1.3189030289649948 1.0145407915115368 1.7754463851451885 5.3770661950111336 1.1667219102382658 1.3189030289649961 1.0145407915115354 1.3189030289649961 1.0145407915115359 1.2681759893894193 93.48993393778801 3.5508927702903748 2.3334438204765311 1.0652678310871126 1.1159948706626899 1.2174489498138417 1.0145407915115354 1.5218111872673032 3.6016198098659506 1.0145407915115354 82.887982666492462 13.239757329225537 1.3189030289649961 9.4352293610572797 1.2174489498138426 1.5218111872673064 5.2248850762844077
leaf_count=43 29 34 136 26 20 35 106 23 26 20 26 20 25 1843 70 46 21 22 24 20 30 71 20 1634 261 26 186 24 30 103
internal_value=-2.87112 -2.88638 -2.89054 -2.71423 -2.63538 -2.44207 -2.71668 -2.32796 -2.20365 -2.81443 -2.21297 -2.8652 -2.74872 -2.89795 -2.88686 -2.78583 -2.69736 -2.89327 -2.74741 -2.89733 -2.8099 -2.85563 -2.5393 -2.90196 -2.86822 -2.90672 -2.87587 -2.78842 -2.73033 -2.90007
internal_weight=253.635 238.214 236.489 9.53668 15.421 4.56543 10.8556 2.18126 2.63781 8.67432 3.09435 7.65978 2.28272 226.953 133.463 7.96415 4.41325 125.499 3.39871 122.1 6.13797 5.12343 2.07981 115.962 14.3558 101.606 18.7183 4.05816 2.84071 14.6601
internal_count=5000 4696 4662 188 304 90 214 43 52 171 61 151 45 4474 2631 157 87 2474 67 2407 121 101 41 2286 283 2003 369 80 56 289
is_linear=0
shrinkage=1


Tree=1
num_leaves=31
num_cat=0
split_feature=5 3 1 4 3 3 3 4 3 4 3 4 3 5 1 1 4 2 5 3 1 1 4 3 3 4 3 4 0 2
split_gain=254.297 128.293 94.4654 168.776 42.2023 63.3416 61.7682 42.8448 18.772 26.6161 15.9104 15.3868 29.4377 24.4925 32.9455 22.139 23.4324 25.9144 17.9741 19.8053 15.3451 12.9622 8.12624 98.2566 9.31358 16.7379 11.3027 10.4868 4.2125 3.57166
threshold=0.82111887405031236 2.5477862406732483 1.3287518154704874 -0.4258326539046467 1.4904408860049558 -0.089601924552804565 -2.3672389819003405 1.3416488017163022 -0.67985416913221552 0.79713907198710388 -1.1009097439020643 0.28803217441045215 1.551175126554748 -2.695582991387202 -0.66496091597395568 -1.4309595198614529 -1.4004281796289062 0.094216061050869895 0.3930248081810413 -0.41528979710362679 -0.10963805196877217 -0.51533861849328466 -2.1432380140950671 -0.44370749283033462 0.42827073475741462 -1.0350866244826882 1.1981076577399545 -1.6251535027205504 -0.34612435026509675 0.35306231651626591
decision_type=2 2 2 2 2 2 2 2 2 2 2 2 2 2 2 2 2 2 2 2 2 2 2 2 2 2 2 2 2 2
left_child=1 2 11 -4 5 6 -2 20 28 -10 -5 12 13 14 -1 -14 -17 -18 22 -20 -7 -21 23 -15 -24 26 27 -26 -8 -27
right_child=4 -3 3 10 -6 7 8 -9 9 -11 -12 -13 15 18 -16 16 17 -19 19 21 -22 -23 24 -25 25 29 -28 -29 -30 -31
leaf_value=-0.029204431583997166 -0.052686061659174069 0.3226062114988919 -0.045055631763968908 0.40442825188479159 0.44886630402116251 0.14452433757516489 0.43099314743468198 0.24192298578827454 0.030343190579102588 0.33514236835108557 0.20929661738012567 -0.042156425865809623 -0.023972808870257718 0.3413190239201303 0.26507084284245425 -0.053358912094580491 0.071349407884203714 0.32654506789113436 0.24825098557243744 0.14249631493310444 -0.035155078927802515 -0.052723606032958892 -0.042187209772295502 -0.044841024053809415 0.021384640931688001 -0.047451390702218488 -0.052686061659174055 0.20282594451135544 0.33138031929717737 0.0038102866787512492
leaf_weight=2.1236918009817605 1.4031111411750314 2.781134605407714 6.5192036516964436 3.3628192357718945 1.2881627678871144 1.5038960054516817 1.9523890465497968 2.5292774774134159 1.1919888481497811 1.7945191822946069 1.5153791904449443 89.98712420836091 3.4734319895505905 1.892478562891484 1.7225673794746388 1.2121795229613779 2.0087005160748945 1.9708489365875719 1.1606629788875578 1.2763007134199145 5.6617377661168549 2.5474623739719382 80.701128832995892 12.713910821825262 1.3462160825729368 9.4837309792637807 1.1611954271793363 1.9497562274336844 2.3254543319344512 5.2953046560287467
leaf_count=43 29 34 133 35 15 20 22 35 21 23 20 1843 70 23 24 21 37 29 20 22 113 52 1650 261 26 194 24 31 26 104
internal_value=-0.000605767 -0.0149833 -0.0190056 0.121383 0.172217 0.152809 0.251024 0.0650033 0.309685 0.21349 0.343812 -0.0262122 -0.015346 -0.0216027 0.102588 0.0737369 0.139108 0.197734 -0.025599 0.0673483 0.00255535 0.0124372 -0.0296436 0.00519185 -0.034735 -0.003471 0.0814577 0.128718 0.376843 -0.0290844
internal_weight=255.856 236.205 233.424 11.3974 19.6505 18.3624 8.66746 9.69491 7.26435 2.98651 4.8782 222.027 132.04 123.374 3.84626 8.66516 5.19173 3.97955 119.528 4.98443 7.16563 3.82376 114.544 14.6064 99.9373 19.2362 4.45717 3.29597 4.27784 14.779
internal_count=5000 4696 4662 188 304 289 121 168 92 44 55 4474 2631 2474 67 157 87 66 2407 94 133 74 2313 284 2029 379 81 57 48 298
is_linear=0
shrinkage=0.05


Tree=2
num_leaves=31
num_cat=0
split_feature=5 3 1 1 4 3 1 3 4 5 3 4 3 1 4 5 1 3 2 1 4 4 3 3 4 4 4 1 5 1
split_gain=202.551 82.0321 60.9515 51.7419 63.9966 42.2667 67.4056 65.2234 29.1211 40.8378 16.3548 17.2637 13.7011 11.1487 10.7408 28.0933 31.5748 20.1873 13.5999 14.639 10.5181 7.03236 68.0861 6.83005 9.07963 13.0667 6.67318 5.7747 5.48052 5.39198
threshold=0.43235699152874713 2.3494154316793114 -0.91289107934574154 1.9072505192848312 -0.4258326539046467 -0.089601924552804565 -1.1893989574318422 -2.3672389819003405 1.3416488017163022 1.0741376804954388 -0.67985416913221552 0.72734807854500561 -2.0129866649954575 -0.2515470161110544 0.35605634426326888 -2.8243174774479152 -1.4984573788081077 1.551175126554748 0.094216061050869895 -1.4309595198614529 -0.1529619965729436 -2.4766943169996769 -0.052528464893572317 0.42827073475741462 -1.0350866244826882 -1.6251535027205504 0.42726378406737991 -0.15119769388339918 -1.2384481357336545 0.98258336375620725
decision_type=2 2 2 2 2 2 2 2 2 2 2 2 2 2 2 2 2 2 2 2 2 2 2 2 2 2 2 2 2 2
left_child=1 3 -3 14 -5 7 -7 27 13 -10 12 -12 -9 20 15 16 -1 21 28 -20 -8 22 -17 -23 25 -25 -14 -2 -19 -16
right_child=5 2 -4 4 -6 6 8 10 9 -11 11 -13 26 -15 29 17 -18 18 19 -21 -22 23 -24 24 -26 -27 -28 -29 -30 -31
leaf_value=-0.05267081095820722 -0.052580591435493353 -0.05552825286800217 0.33466456577778136 -0.036008030374776283 0.29581525932943092 0.31349430788581911 -0.019771240523833708 0.13260683082903221 -0.030090701344349182 0.2713231280918334 0.011100143051762877 0.21754968917882547 0.24128040776646517 -0.042201143945760286 -0.043505386578580385 0.27724004654355316 0.25657043875835567 -0.052871177272896711 -0.015654068150462781 0.18603458487569316 0.17538752533509627 -0.037315706439929479 -0.052826932122674523 -0.024694496739456701 -0.027374046746591885 0.1135269751890442 0.34195709136763786 0.084588354751378519 0.060635532359416877 0.057247801101212192
leaf_weight=1.4440441094338896 2.7066123262047772 1.5534614212810991 2.8134646229445925 3.0125596523284912 2.8069436624646178 2.2908707931637791 1.4688407406210902 1.5825842656195162 2.0831095650792113 2.4401348009705544 1.5496183335781069 2.9220903925597668 3.0109143070876598 9.3643623366951907 76.956103097647429 1.9538560360670088 1.926874317228793 2.6885194480419159 1.3505028560757635 2.695135124027729 1.3027235902845902 87.679285898804665 7.7985420748591405 3.5671651735901833 15.779433559626339 3.2839041426777866 3.6307009942829609 1.0708606988191629 1.7593848928809146 1.3512329459190358
leaf_count=30 58 20 30 64 20 23 24 18 33 26 28 33 29 189 1637 26 26 53 28 33 19 1836 160 73 325 51 36 16 33 23
internal_value=-0.000855387 -0.0186902 0.19586 -0.0230268 0.124042 0.110121 0.0591984 0.168699 0.0242291 0.132512 0.222968 0.146007 0.264814 -0.0161295 -0.0270978 -0.0183907 0.124097 -0.0221269 0.0523673 0.118707 0.0719596 -0.0273968 0.0133007 -0.0309949 -0.00650558 0.0415588 0.296316 -0.0136951 -0.00797318 -0.0417668
internal_weight=255.844 220.42 4.36693 216.053 5.8195 35.4234 18.95 16.4734 16.6592 4.52324 12.6959 4.47171 8.2242 12.1359 210.234 131.927 3.37092 128.556 8.49354 4.04564 2.77156 120.062 9.7524 110.31 22.6305 6.85107 6.64162 3.77747 4.4479 78.3073
internal_count=5000 4468 50 4418 84 532 314 218 291 59 144 61 83 232 4334 2674 56 2618 147 61 43 2471 186 2285 449 124 65 74 86 1660
is_linear=0
shrinkage=0.05


Tree=3
num_leaves=31
num_cat=0
split_feature=5 3 1 4 5 3 3 3 5 1 1 4 3 1 4 5 1 3 1 2 3 2 1 4 3 3 4 5 1 2
split_gain=169.787 65.8597 38.6949 42.2925 36.6569 32.5637 59.9259 48.7519 33.4901 27.66 21.3237 17.8408 14.097 13.1592 11.2891 23.642 20.0862 19.0847 11.4816 10.6071 8.34875 7.26314 8.39976 4.64447 61.2941 9.74536 14.5837 7.59574 9.33012 4.74589
threshold=0.34951771286830086 2.3494154316793114 1.9072505192848312 -0.4258326539046467 -2.2223333731956645 -0.089601924552804565 -2.0511007799436261 1.8641425046017168 1.3204911714620193 0.9481867716146174 0.51015377974596665 0.72734807854500561 -0.44370749283033462 -1.0545372713088677 0.35605634426326888 -2.8243174774479152 -0.66496091597395568 1.551175126554748 -1.668073005896334 0.094216061050869895 -0.21369298824585251 0.38210516654957244 1.1100500544635445 -2.1432380140950671 -0.52089997873910687 0.42827073475741462 -1.0350866244826882 -1.2288061191169728 -1.3466401450776295 0.35306231651626591
decision_type=2 2 2 2 2 2 2 2 2 2 2 2 2 2 2 2 2 2 2 2 2 2 2 2 2 2 2 2 2 2
left_child=1 2 14 -4 -3 6 10 8 13 11 -2 -10 21 -7 15 16 -1 23 -19 -20 -14 22 -8 24 -17 -25 27 -27 -29 -28
right_child=5 4 3 -5 -6 7 12 -9 9 -11 -12 -13 20 -15 -16 17 -18 18 19 -21 -22 -23 -24 25 -26 26 29 28 -30 -31
leaf_value=-0.022961482260216052 -0.053051906918080385 -0.007260873354096988 -0.035095436589806087 0.23266485166767437 0.26704115019469016 0.12070884185681792 0.22801222445153316 0.29308382107272302 0.078480217065067803 -0.014897763550932908 0.14365959787567908 0.2864915672335 0.0269028064306117 -0.040362594990719203 -0.043003188325259296 0.22787043454469003 0.20984336164662287 -0.034654204205882326 0.017966983439520721 0.15177401697708198 0.18788030281006637 0.26106173227911889 0.11192606915670809 -0.039729682883242662 -0.042463238042175999 0.14870997429264463 -0.047247394952488836 0.11740566179919959 -0.054028765708603634 0.011328656384057799
leaf_weight=1.6810678020119669 4.4989006109535721 2.0176464915275574 2.8706540130078793 3.0326931253075591 3.0730570033192626 1.4227891378104729 3.8273378051817417 1.836545057594775 1.859457567334174 2.5630421042442322 1.9857434891164301 2.3131134919822216 1.823566656559706 11.658143796026707 73.64561203867197 2.4508895613253143 2.0641859322786322 2.7838840484619141 2.8137160353362543 3.1271362453699112 1.4426122941076727 4.9917283579707146 2.6284354850649834 78.071622982621193 14.513728957623242 1.9760763794183729 9.4398743286728841 1.4572156257927416 1.742903385311368 5.4568498618900767
leaf_count=35 93 22 63 18 28 18 34 15 28 46 21 20 25 222 1624 23 21 59 52 34 21 42 23 1710 306 33 206 22 27 109
internal_value=-0.00101655 -0.0193474 -0.0237142 0.10246 0.158324 0.089766 0.133818 0.0466394 0.0237995 0.114382 0.00718557 0.193794 0.189627 -0.0228431 -0.0274157 -0.0184178 0.105348 -0.022161 0.049136 0.0884001 0.0980037 0.215769 0.180748 -0.027565 -0.00340796 -0.0317406 -0.000668063 0.0716319 0.0240361 -0.0257903
internal_weight=255.07 212.219 207.128 5.90335 5.0907 42.8514 21.1983 21.6531 19.8165 6.73561 6.48464 4.17257 14.7137 13.0809 201.225 127.579 3.74525 123.834 8.72474 5.94085 3.26618 11.4475 6.45577 115.109 16.9646 98.1445 20.0729 5.1762 3.20012 14.8967
internal_count=5000 4392 4342 81 50 608 259 349 334 94 114 48 145 240 4261 2637 56 2581 145 86 46 99 57 2436 329 2107 397 82 49 315
is_linear=0
shrinkage=0.05


Tree=4
num_leaves=31
num_cat=0
split_feature=5 3 1 4 5 5 1 3 3 1 4 3 4 4 5 4 5 4 3 1 3 2 4 5 4 3 4 4 3 4
split_gain=146.009 55.1658 27.645 29.051 24.534 23.8346 28.1734 54.3562 31.5285 20.7977 31.5165 26.9802 20.3902 13.6434 13.1448 10.1922 21.092 19.4258 13.6472 10.4946 9.30571 8.06746 5.77473 5.66539 19.2078 7.22362 6.79582 4.91611 2.69379 8.559
threshold=0.25913394747430801 2.3494154316793114 2.0398470086521105 -0.4258326539046467 -2.2223333731956645 0.98541453479798247 0.5362599988701493 -0.067938069761656769 1.3228585892810225 0.5362599988701493 2.1007447161012265 -0.62646363378652759 -1.2567462778719904 0.42726378406737991 1.2208812080497229 0.35605634426326888 -2.695582991387202 -1.4375739640272476 1.551175126554748 -1.4309595198614529 0.64301651158073037 0.094216061050869895 0.11133673150565655 -0.12671167641347095 -0.70374920829388954 0.37975549353323013 0.22923322993054188 -3.1988037328982579 0.42827073475741462 -2.1432380140950671
decision_type=2 2 2 2 2 2 2 2 2 2 2 2 2 2 2 2 2 2 2 2 2 2 2 2 2 2 2 2 2 2
left_child=1 2 15 -4 -3 6 8 13 12 14 11 -11 -2 -8 -7 16 17 20 23 -20 -1 -21 -16 27 25 -25 -26 -18 29 -29
right_child=5 4 3 -5 -6 9 7 -9 -10 10 -12 -13 -14 -15 22 -17 18 -19 19 21 -22 -23 -24 24 26 -27 -28 28 -30 -31
leaf_value=0.1030997442652824 0.13782002110280447 -0.0069371840074132834 -0.052426404572425492 0.19694961890450954 0.21032208875554359 0.062397879175799836 0.09860258860469831 -0.053286353719647295 0.25641393732529172 0.13814583649562345 0.25002070377544106 -0.037269872113485127 -0.041511175128316348 0.23782838901525505 0.13345252738033145 -0.042340231379968674 0.069516019995892117 0.20491883250102744 -0.036488834475347481 0.0089448499128173629 -0.055345062242860836 0.13000791070733145 0.22053114612832256 0.20798596733850833 -0.052503031826388914 0.035594880530290356 0.082288955206535175 0.010359048298582399 -0.01730049629455277 -0.042869672023338232
leaf_weight=1.5768278948962691 1.8133432939648617 2.0064916685223579 1.9863041862845419 2.8343294113874427 3.6874627023935309 2.528619788587096 2.8925714232027531 3.6168420389294607 1.1204764842987049 3.5051958188414565 1.9371395781636227 5.8511658161878577 12.591818828135731 4.4926195293664932 2.8314870446920377 69.613769583404064 1.1952441185712803 1.9194508306682099 3.1088178716599941 2.4120096601545793 2.2475566379725933 3.2041695713996887 5.8118842057883739 1.3385994695127013 6.1757871322333795 1.1128545254468916 1.1019381359219549 8.4940520934760553 22.533707167953253 68.105809707194567
leaf_count=23 25 22 45 15 28 38 36 69 15 25 15 99 243 33 27 1598 20 28 67 43 32 30 43 28 138 17 21 155 470 1552
internal_value=-0.00112834 -0.0196893 -0.0240808 0.0941962 0.133762 0.0764048 0.0443114 0.105522 0.000935202 0.114301 0.0664525 0.0284465 -0.0189367 0.183298 0.16267 -0.0270177 -0.018452 0.0751259 -0.022977 0.0372155 0.00998315 0.0780143 0.192005 -0.0277489 0.00868024 0.129728 -0.0320938 -0.0312815 -0.0324968 -0.0369672
internal_weight=253.648 204.655 198.961 4.82063 5.69395 48.9932 26.5277 11.002 15.5256 22.4655 11.2935 9.35636 14.4052 7.38519 11.172 194.141 124.527 5.74384 118.783 8.725 3.82438 5.61618 8.64337 110.058 9.72918 2.45145 7.27773 100.329 99.1336 76.5999
internal_count=5000 4332 4282 60 50 668 421 138 283 247 139 124 268 69 108 4222 2624 83 2541 140 55 73 70 2401 204 45 159 2197 2177 1707
is_linear=0
shrinkage=0.05


Tree=5
num_leaves=31
num_cat=0
split_feature=5 3 1 3 3 1 3 5 4 3 1 1 4 5 1 3 1 4 1 3 5 4 1 4 3 2 5 3 4 3
split_gain=127.021 47.4296 24.4004 18.6334 26.9384 42.3387 37.3251 22.6293 20.1013 18.0777 16.2275 11.5951 9.93842 17.6723 17.8678 14.8645 10.7227 7.55127 10.4082 5.60834 5.31176 15.8322 5.6114 4.42784 4.14328 4.05181 3.57073 2.63911 8.24052 26.407
threshold=0.25913394747430801 2.5477862406732483 2.0398470086521105 1.8641425046017168 -0.089601924552804565 -1.5908421439838993 -2.0511007799436261 1.3204911714620193 0.49341186977647311 -0.73811660164851001 0.51015377974596665 0.46363228401750339 0.35605634426326888 -2.695582991387202 -0.66496091597395568 1.551175126554748 -0.50242198507297609 0.47269322287334786 0.89527400702590898 -0.70843760008674739 -0.12671167641347095 -1.0074476506305972 0.69026284596055898 -3.1988037328982579 1.3228585892810225 0.094216061050869895 1.3896233741485196 0.42827073475741462 -2.1432380140950671 -0.73811660164851001
decision_type=2 2 2 2 2 2 2 2 2 2 2 2 2 2 2 2 2 2 2 2 2 2 2 2 2 2 2 2 2 2
left_child=1 2 12 4 6 -6 10 24 -9 -4 -2 -10 13 14 -1 20 25 18 -8 -19 23 -22 -23 -15 -7 -17 -21 28 29 -25
right_child=3 -3 9 -5 5 7 17 8 11 -11 -12 -13 -14 15 -16 16 -18 19 -20 26 21 22 -24 27 -26 -27 -28 -29 -30 -31
leaf_value=-0.033924826524661424 -0.052787206949871324 0.13670580213367162 0.15167466804308122 0.205583113949176 0.28177083157013766 -0.044917581974998975 0.12872612685896617 -0.034800943530912447 0.21873542405412572 -0.052302471282677149 0.097780551696983381 0.057565619509181667 -0.041216360274226115 0.062408141095037332 0.13768917878072062 -0.027486260836451733 0.12863522768390773 0.18978980969834047 -0.004926876351655618 0.078191499334061054 0.14386763340530756 -0.044350110756109881 0.055106690126131633 0.22364979850929192 0.04200024220914176 0.04729842603677812 0.16266169730690705 -0.016698741542025091 -0.042388824209550542 -0.026266836833544562
leaf_weight=2.6352557651698589 4.8448203764855888 4.7647894918918601 3.3862937726080418 2.381230689585208 1.4580567516386533 11.968999549746515 5.7793317288160351 2.6112770065665236 2.2795603945851326 1.5992046371102322 2.837570283561945 2.1862316615879536 67.575923770666122 1.262933988124131 3.5733592733740798 3.9027381017804146 2.4236090704798681 6.4567115902900731 1.947526831179857 2.5718126483261532 1.7593431398272503 6.2234529145061952 1.8367867954075334 1.2349805161356924 1.5484749004244793 3.379594873636961 2.4362364411354065 22.187433242797852 65.50070895254612 7.3336448110640031
leaf_count=52 107 32 22 15 12 234 53 48 14 38 26 28 1607 20 32 75 28 41 25 27 26 144 34 10 22 45 16 470 1552 145
internal_value=-0.00120278 -0.0191606 -0.0229533 0.0690003 0.0623529 0.0213967 0.0959613 0.00296269 0.0753981 0.0862447 0.00282655 0.139835 -0.0258061 -0.0173572 0.0648474 -0.0217177 0.0375378 0.133243 0.0950394 0.158991 -0.0270757 0.007976 -0.0216857 -0.0306052 -0.0349608 0.00721992 0.119283 -0.0318256 -0.0363568 0.0097532
internal_weight=251.888 200.58 195.815 51.3078 48.9266 22.0526 26.874 20.5945 7.07707 4.9855 7.68239 4.46579 190.83 123.254 6.20862 117.045 9.70594 19.1916 7.72686 11.4648 107.339 9.81958 8.06024 97.5197 13.5175 7.28233 5.00805 96.2568 74.0693 8.56863
internal_count=5000 4332 4300 668 653 358 295 346 90 60 133 42 4240 2633 84 2549 148 162 78 84 2401 204 178 2197 256 120 43 2177 1707 155
is_linear=0
shrinkage=0.05


Tree=6
num_leaves=31
num_cat=0
split_feature=5 3 1 1 5 1 3 3 1 1 4 4 4 5 1 4 3 1 4 5 1 5 2 5 4 4 5 3 4 4
split_gain=111.691 40.9598 22.0816 18.032 15.3463 20.3838 36.1804 21.0289 17.306 13.121 20.9984 12.6018 9.66144 16.3923 15.5683 30.9706 11.3706 8.14216 7.46243 7.3945 7.29282 5.32925 10.0699 4.99735 13.446 6.18603 4.8424 4.73938 4.01073 3.33055
threshold=0.25913394747430801 2.3494154316793114 2.0398470086521105 -0.6160965969836546 0.98541453479798247 0.5362599988701493 -0.067938069761656769 1.3228585892810225 -1.8982205807196906 0.5362599988701493 1.1561397455140465 0.42726378406737991 0.35605634426326888 -2.695582991387202 -1.4984573788081077 -3.1988037328982579 1.551175126554748 -1.4309595198614529 0.42726378406737991 1.2208812080497229 1.0661239111739549 -0.64194103108708278 0.094216061050869895 -0.12671167641347095 -0.70374920829388954 0.22923322993054188 1.3204911714620193 0.37975549353323013 -3.1988037328982579 -0.5005034425070275
decision_type=2 2 2 2 2 2 2 2 2 2 2 2 2 2 2 2 2 2 2 2 2 2 2 2 2 2 2 2 2 2
left_child=1 2 12 -3 5 7 18 8 -2 19 26 -4 13 14 -1 -16 23 -18 -7 -6 -12 22 -19 28 27 -26 -11 -25 -15 -21
right_child=4 3 11 -5 9 6 -8 -9 -10 10 20 -13 -14 16 15 -17 17 21 -20 29 -22 -23 -24 24 25 -27 -28 -29 -30 -31
leaf_value=-0.052686140374854008 0.11605591734275417 -0.013021695370110312 -0.010177745660487965 0.16221422597663146 0.052859559308269903 0.079336087779913161 -0.05309021541587694 0.18015438806061779 -0.041354378615641674 0.043187830969781092 0.17667108218678379 0.14792313456090203 -0.041351917594249152 0.056389646310735675 -0.032076815653453036 0.23637458151077945 -0.035901331225378773 -0.00036588129680590763 0.17456048278163602 0.075514650655060675 0.070917436633616326 -0.021010780949064625 0.14802275253188443 0.15074592945864551 -0.052318803879041802 0.073800026435195717 -0.055016668159330234 0.02330313442135477 -0.031179718616782183 0.1571878025722874
leaf_weight=2.0579214468598366 2.0382190309464923 2.2027103491127491 2.2245421968400469 4.4015082642436019 2.7135430760681656 3.2690294161438924 3.3817989379167548 1.4650651216506947 12.183223981410267 1.9731476232409457 2.6854815259575844 2.9080355763435364 64.505386997014284 1.3261038325726975 1.9699737839400766 2.3632401637732974 3.0140910930931568 1.8883549533784387 5.5511257871985435 1.4536391422152508 4.1486323177814484 1.4137904569506625 2.8977614417672157 1.7038172632455828 5.729395963251589 1.1710021942853925 3.4502266086637974 1.2757272161543367 93.465288549661636 8.8338427208363992
leaf_count=43 35 23 47 27 38 36 69 15 233 28 18 13 1598 20 19 21 67 33 33 13 34 17 23 28 138 21 59 17 2177 57
internal_value=-0.00125034 -0.0186419 -0.0228986 0.103768 0.0630574 0.0374877 0.085955 -0.0002132 -0.0187943 0.0912894 0.0541753 0.0793997 -0.0257401 -0.0173673 0.0605519 0.114331 -0.0217401 0.0315096 0.139267 0.126281 0.112474 0.0642814 0.0894762 -0.0264275 0.00741268 -0.0309164 -0.0192876 0.0961798 -0.0299546 0.145647
internal_weight=249.666 196.519 189.914 6.60422 53.147 27.8885 12.202 15.6865 14.2214 25.2585 12.2575 5.13258 184.782 120.276 6.39114 4.33321 113.885 9.214 8.82016 13.001 6.83411 6.19991 4.78612 104.671 9.87994 6.9004 5.42337 2.97954 94.7914 10.2875
internal_count=5000 4332 4282 50 668 421 138 283 268 247 139 60 4222 2624 83 40 2541 140 69 108 52 73 56 2401 204 159 87 45 2197 70
is_linear=0
shrinkage=0.05


Tree=7
num_leaves=31
num_cat=0
split_feature=5 3 1 5 3 3 1 5 4 4 3 1 4 5 1 3 3 1 1 1 5 4 1 1 2 4 3 1 5 4
split_gain=98.7952 35.8468 19.9204 15.4189 13.7877 25.5341 32.8493 21.0983 24.3601 10.6289 10.5428 10.4513 9.37945 14.5261 13.0143 10.4016 7.50206 7.26177 7.03643 6.55663 4.71962 11.0778 7.23247 4.30176 4.05615 3.74352 22.8481 8.8758 7.24301 14.113
threshold=0.25913394747430801 2.3494154316793114 2.0398470086521105 -2.2223333731956645 -2.3672389819003405 -0.44370749283033462 -1.5908421439838993 1.0221411040653336 0.72734807854500561 0.42726378406737991 1.3228585892810225 0.46363228401750339 0.35605634426326888 -2.695582991387202 -0.66496091597395568 1.551175126554748 -1.8126497174231766 0.69026284596055898 -1.4309595198614529 0.9481867716146174 -0.15977618029221088 -1.0074476506305972 0.69026284596055898 1.5492970428020505 0.094216061050869895 -1.3413749887776143 -1.2454052780674356 -0.45497168284565492 -1.4190538817474858 -1.7515933515909545
decision_type=2 2 2 2 2 2 2 2 2 2 2 2 2 2 2 2 2 2 2 2 2 2 2 2 2 2 2 2 2 2
left_child=1 2 12 -3 17 16 -7 10 -9 -4 -8 -10 13 14 -1 20 19 -2 -17 -6 25 -22 -23 -18 -20 26 -15 28 -28 -30
right_child=4 3 9 -5 5 6 7 8 11 -11 -12 -13 -14 15 -16 18 23 -19 24 -21 21 22 -24 -25 -26 -27 27 -29 29 -31
leaf_value=-0.033368300166786963 -0.052505027624844339 -0.014243390232345082 -0.0097538948392133021 0.14467364126892615 -0.010366921831125395 0.19295637425593945 -0.044591626814233926 -0.017936993562288325 0.17671994246039685 0.13447396574323625 0.073502925059179006 0.060848766338814253 -0.040843166757081911 0.17179051799792289 0.11045913138552117 -0.035264653758469808 0.14123066735388187 0.080566762867427533 0.00766963711225584 0.11672885498203034 0.10714431311108995 -0.044893392133684658 0.059394993928368923 0.080873934718747792 0.089179791050569154 -0.038091888467088171 -0.019199761842347514 -0.049777859465579506 0.2068008823987782 0.0038699590106644997
leaf_weight=2.5597043596208096 3.9771200828254214 2.2577857710421085 2.205641519278287 4.7114340290427199 2.1422955095768001 3.028625667095187 11.228534512221815 5.3431214615702611 4.0233827084302902 3.035321831703186 2.2723473571240893 3.7692185640335083 62.104554884135723 1.5294782184064377 4.0794329866766921 2.9175518043339252 11.718894287943838 1.3812585622072218 2.4599476940929872 1.9279843010008333 2.1426734887063494 6.7917456589639169 2.2013066858053207 3.9462269209325305 4.0212306827306747 53.032071117311723 13.332322217524053 18.507176380604498 1.1323378346860407 3.5204800330102435
leaf_count=52 92 22 47 28 29 18 225 95 21 13 25 39 1598 26 31 67 76 11 43 15 27 167 38 22 30 1309 304 440 15 75
internal_value=-0.00128276 -0.0181362 -0.0223171 0.09319 0.057977 0.06624 0.0369201 0.0191785 0.0642922 0.0737762 -0.024715 0.120674 -0.0251099 -0.0168452 0.0550068 -0.0211202 0.110312 -0.0182024 0.029216 0.049835 -0.0257498 0.00497654 -0.0193658 0.126026 0.0582424 -0.0295075 -0.0175342 -0.0254693 -0.000455089 0.0532565
internal_weight=247.301 192.542 185.573 6.96922 54.759 49.4006 29.6652 26.6366 13.1357 5.24096 13.5009 7.7926 180.332 118.227 6.63914 111.588 19.7354 5.35838 9.39873 4.07028 102.19 11.1357 8.99305 15.6651 6.48118 91.0539 38.0218 36.4923 17.9851 4.65282
internal_count=5000 4332 4282 50 668 565 423 405 155 60 250 60 4222 2624 83 2541 142 103 140 44 2401 232 205 98 73 2169 860 834 394 90
is_linear=0
shrinkage=0.05


Tree=8
num_leaves=31
num_cat=0
split_feature=5 3 1 4 3 3 1 4 5 1 4 3 5 4 1 1 3 5 2 1 4 3 3 3 4 5 2 4 3 5
split_gain=88.146 31.4558 23.3942 18.6685 12.2121 23.2039 22.0427 19.3411 17.6038 14.6293 9.98663 15.0146 11.3766 8.94388 15.4393 8.82041 8.74796 8.68598 5.15583 4.90613 4.77787 39.0177 7.3077 6.0766 5.19937 4.53048 4.50569 5.18204 7.72468 10.1054
threshold=0.37260028046147436 2.5477862406732483 1.9072505192848312 -0.4258326539046467 -2.3672389819003405 -0.44370749283033462 -1.5908421439838993 0.2187687487037068 1.0221411040653336 0.9481867716146174 0.35605634426326888 1.551175126554748 -2.695582991387202 -1.4004281796289062 -0.50242198507297609 -1.4984573788081077 1.345029759174724 -0.65472242439451278 0.094216061050869895 -1.3028563552509034 -2.1432380140950671 -0.76176954779582517 -0.016006280931080249 -0.41528979710362679 -0.13231992802531864 -1.2836625828054451 -0.64902369556444295 -1.6251535027205504 0.74765083958688283 -0.85706034498983408
decision_type=2 2 2 2 2 2 2 2 2 2 2 2 2 2 2 2 2 2 2 2 2 2 2 2 2 2 2 2 2 2
left_child=1 2 10 -4 -2 -6 -7 -8 16 -10 11 12 15 -13 17 -1 -9 18 -15 -20 21 -14 -22 -23 26 -25 -24 -28 29 -29
right_child=4 -3 3 -5 5 6 7 8 9 -11 -12 13 20 14 -16 -17 -18 -19 19 -21 22 23 24 25 -26 -27 27 28 -30 -31
leaf_value=-0.05242319799478428 -0.021762666117618026 0.099662652229336401 -0.034258016545039509 0.13175267307655086 0.10814347567618612 0.16763818544379816 -0.037258301456332736 -0.035321134612640685 0.13319770742298978 -0.012033594766775579 -0.03997490139084571 -0.055532143701639974 0.20431465277305927 -0.052982393184281301 0.15925114429544981 0.087246331646064379 0.11893507552472696 0.13751496817475603 -0.022425806697226481 0.10379914354662284 -0.039024295769945247 0.056574088227856291 -0.039729162309170618 -0.052242716722049533 -0.039966488308458115 0.070011448666321349 -0.026479525317218595 0.19174930062977036 0.0068014926412993428 0.023416626327676431
leaf_weight=1.5701934807002542 4.4615389220416537 5.6393482610583296 2.7394830025732517 4.4351383894681922 18.5671894736588 2.8539119139313724 9.0829060636460799 5.4003240875899783 7.1275231912732107 2.2914263904094696 61.943053513765335 2.1323366016149512 2.0390878990292558 2.945946477353572 2.706974744796752 4.0356434695422641 1.1076037138700483 1.2845574580132959 1.568198945373297 1.5120986998081205 60.733103923499577 1.7400513589382178 3.7390436083078429 10.765595749020573 8.0800191536545807 0.81518521532416066 3.8473067209124592 1.636021498590708 5.8214478604495525 1.9593356475233994
leaf_count=36 88 32 63 19 115 14 173 108 47 33 1640 29 12 61 21 32 11 15 30 10 1554 17 79 264 194 18 89 37 118 41
internal_value=-0.00130734 -0.0166936 -0.020183 0.0683649 0.0572506 0.0648429 0.0359893 0.0209666 0.0541715 0.0978661 -0.0236953 -0.0152165 -0.0212091 0.0374502 0.057242 0.0481249 -0.00906781 0.0194711 -0.00569125 0.0395372 -0.0250507 0.000631884 -0.0296475 -0.0305469 -0.00694379 -0.0436371 0.00874882 0.0224144 0.0423903 0.100014
internal_weight=244.582 193.689 188.05 7.17462 50.8924 46.4309 27.8637 25.0098 15.9269 9.41895 180.875 118.932 106.782 12.1501 10.0178 5.60584 6.50793 7.3108 6.02624 3.0803 101.176 15.3599 85.8163 13.3208 25.0832 11.5808 17.0032 13.2641 9.41681 3.59536
internal_count=5000 4411 4379 82 589 501 386 372 199 80 4297 2657 2491 166 137 68 119 116 101 40 2423 311 2112 299 558 282 364 285 196 78
is_linear=0
shrinkage=0.05


Tree=9
num_leaves=31
num_cat=0
split_feature=5 3 1 4 3 3 1 3 5 1 4 4 5 4 3 1 1 1 5 5 1 4 2 5 1 1 4 3 1 5
split_gain=78.8443 28.323 16.5464 16.5329 10.261 13.8511 23.0453 19.5981 15.0873 11.2696 11.0142 8.58422 11.9533 8.80637 8.29401 7.03505 5.60212 5.14902 4.52276 4.4356 5.31232 5.97349 4.05607 3.59786 31.1253 8.17956 3.54873 20.5492 7.26002 6.13597
threshold=0.25913394747430801 2.3494154316793114 1.9072505192848312 -1.1942069361056029 1.946036493234967 -0.089601924552804565 -1.5908421439838993 -2.0511007799436261 1.3204911714620193 0.51015377974596665 0.49341186977647311 0.35605634426326888 -2.8243174774479152 -2.6768160046985674 1.551175126554748 -0.22329918227001114 -1.4309595198614529 0.404385186805229 -0.64194103108708278 1.6517012938541475 0.084952240417401473 0.14448127098971555 0.56157652161808558 -0.11536050761748089 -1.6104433596904577 0.69026284596055898 -1.3413749887776143 -1.2251244456871098 -0.45497168284565492 -1.4190538817474858
decision_type=2 2 2 2 2 2 2 2 2 2 2 2 2 2 2 2 2 2 2 2 2 2 2 2 2 2 2 2 2 2
left_child=1 2 11 -4 5 7 -7 9 -8 -2 -10 12 13 -1 23 -3 -16 -12 22 20 -9 -22 -18 26 -25 -26 27 -14 29 -29
right_child=4 15 3 -5 -6 6 8 19 10 -11 17 -13 14 -15 16 -17 18 -19 -20 -21 21 -23 -24 24 25 -27 -28 28 -30 -31
leaf_value=-0.013893944434561817 -0.052667845435508967 0.02932015940374795 -0.052223330725785992 0.12155441725884211 0.14732948589264347 0.16590592284271824 -0.034149656810159544 0.047161650958756143 -0.033835260472970578 0.068036379395146271 0.14322425132405983 -0.039807159365648978 0.14158410783216366 0.11980597448231145 -0.034761557719769416 0.12597584018383887 0.029829192128842025 0.04616605545418509 -0.02609555394129805 0.032878781380487082 0.05300612798712389 0.12675219503797894 0.11671742513117551 0.29574696182499527 -0.052716781883473555 0.059671662244986469 -0.035590513580230659 -0.019604970687485762 -0.046965048550291238 0.045458513765771549
leaf_weight=2.2387278154492378 4.5161647908389595 3.7552576623857021 2.1122643612325191 3.8879245705902568 2.5894776657223693 2.3095075935125378 12.819741118699314 4.0580171793699327 2.4827170558273783 3.3818260170519352 2.6482296288013458 57.645404301583767 1.9752465747296799 2.7377749197185031 2.8595888540148735 3.7751009911298743 2.8986633308231831 2.823252622038126 1.5795111134648303 2.9585149623453608 3.4882122017443207 12.904103826731442 2.5029188990592957 0.84105539321899314 6.1890511699020845 2.1924130022525787 51.390074495226152 13.457668054848911 17.644862487912171 4.9589336328208438
leaf_count=26 107 31 53 21 12 13 258 39 48 26 12 1598 27 30 70 19 39 30 17 21 33 69 16 9 148 36 1346 317 438 91
internal_value=-0.00132892 -0.0171954 -0.0212333 0.0603789 0.0500864 0.0454567 0.016072 0.0671229 -0.000585541 -0.000983728 0.0535096 -0.0240952 -0.0161128 0.0596598 -0.0195886 0.0777753 0.024183 0.0931428 0.0483278 0.0901016 0.09838 0.111059 0.0700904 -0.023955 0.00577908 -0.0233184 -0.0270214 -0.015444 -0.0240451 -0.0020857
internal_weight=241.622 184.642 177.112 6.00019 56.9798 54.3903 23.0834 31.3068 20.7739 7.89799 7.9542 171.112 113.466 4.9765 108.49 7.53036 9.84068 5.47148 6.98109 23.4088 20.4503 16.3923 5.40158 98.6493 9.22252 8.38146 89.4268 38.0367 36.0615 18.4166
internal_count=5000 4332 4282 74 668 656 361 295 348 133 90 4208 2610 56 2554 50 142 42 72 162 141 102 55 2412 193 184 2219 873 846 408
is_linear=0
shrinkage=0.05


Tree=10
num_leaves=31
num_cat=0
split_feature=5 3 1 4 3 3 1 4 5 1 4 3 5 4 1 4 3 5 3 2 1 4 5 5 1 4 1 1 1 3
split_gain=70.8688 24.9097 19.3661 14.4932 9.35493 16.3509 15.9971 15.7389 13.4853 10.9715 9.26234 12.3582 9.59347 7.74422 10.8201 7.70711 7.2091 7.14184 7.12309 4.47591 4.38844 16.6064 20.949 10.0582 8.07295 4.53822 11.442 4.14305 3.62027 3.31931
threshold=0.37260028046147436 2.5477862406732483 1.9072505192848312 -0.4258326539046467 -2.3672389819003405 -0.44370749283033462 -1.5908421439838993 0.2187687487037068 1.0221411040653336 0.9481867716146174 0.35605634426326888 1.551175126554748 -2.695582991387202 -1.4004281796289062 -0.50242198507297609 -2.4099499216139817 1.345029759174724 -0.65472242439451278 0.52757104866883398 0.094216061050869895 -1.0651959544611305 -2.1432380140950671 -2.1192158004738055 -0.070728757740205747 -1.1017531306140429 0.20019998427503857 -0.33866146682387949 0.69026284596055898 -1.3028563552509034 0.46747538318288917
decision_type=2 2 2 2 2 2 2 2 2 2 2 2 2 2 2 2 2 2 2 2 2 2 2 2 2 2 2 2 2 2
left_child=1 2 10 -4 27 -6 -7 -8 16 -10 11 12 15 -13 17 18 -9 19 -1 -15 21 22 -14 24 29 -22 -27 -2 -21 -23
right_child=4 -3 3 -5 5 6 7 8 9 -11 -12 13 20 14 -16 -17 -18 -19 -20 28 25 23 -24 -25 -26 26 -28 -29 -30 -31
leaf_value=0.088731356301971459 -0.052293305914085111 0.083732626341669558 -0.033245274520221538 0.11425718603935496 0.090709552165891771 0.13887096137773522 -0.036245749085699538 -0.034870780779730069 0.11178601873726349 -0.012446440340066879 -0.038912776129441932 -0.055573285259388705 -0.052990402804951486 -0.052869649397039399 0.12852506052229831 0.11452269221172884 0.10054103430263578 0.1180577551744993 -0.056938036596831457 -0.021983333807512731 -0.03754388879534671 -0.040114548248470563 0.15054259930945219 0.098908004229538313 0.12375109252151673 -0.052088697069771088 0.18050173095067856 0.055646393766420603 0.084057033171544726 -0.0064309280159935249
leaf_weight=1.3280628249049189 3.0433947257697573 6.0771853178739539 2.605521596968174 4.6152190417051306 20.066526461392641 3.0980168804526356 8.6327204070985335 5.2276150658726719 7.7441908717155439 2.3065195083618164 57.606623508036137 2.0904569290578356 2.0842989012598991 2.7994457408785811 3.0847273021936408 2.2545690760016432 1.210493169724941 1.4194732829928396 2.2798906043171883 1.5374756678938868 47.360806625336409 29.481109067797661 3.2133234031498423 1.6127388291060913 0.85271664708852668 1.4117896221578123 0.84537660330533881 1.2558247596025465 1.6892399638891218 9.7271082252264005
leaf_count=14 78 32 63 19 115 14 173 108 47 33 1640 29 49 61 21 24 11 15 30 30 1221 811 27 25 22 37 13 10 10 218
internal_value=-0.0013372 -0.0158282 -0.0191915 0.0610326 0.0499128 0.0562056 0.0316703 0.0184502 0.0470863 0.0832761 -0.0225461 -0.0143528 -0.0201038 0.0323322 0.049783 0.0420003 -0.00941065 0.0171601 -0.00331814 -0.00660654 -0.0238732 -0.0129195 0.0704645 -0.0235194 -0.0284479 -0.0342427 0.0350234 -0.0207635 0.0335306 -0.031758
internal_weight=238.562 185.977 179.9 7.22074 52.5853 48.2861 28.2196 25.1215 16.4888 10.0507 172.679 115.073 102.452 12.6208 10.5304 5.86252 6.43811 7.44563 3.60795 6.02616 96.5893 46.9713 5.29762 41.6737 40.0609 49.618 2.25717 4.29922 3.22672 39.2082
internal_count=5000 4411 4379 82 589 501 386 372 199 80 4297 2657 2491 166 137 68 119 116 44 101 2423 1152 76 1076 1051 1271 50 88 40 1029
is_linear=0
shrinkage=0.05


Tree=11
num_leaves=31
num_cat=0
split_feature=5 3 1 4 3 1 4 3 3 1 3 4 1 5 1 5 1 5 1 1 3 4 3 5 3 5 1 5 4 5
split_gain=63.7801 23.0785 12.4217 27.6358 10.9858 28.1683 10.2009 8.18789 10.4122 17.0423 14.7354 13.4411 9.38318 9.19149 8.71924 7.62552 7.37881 22.6922 13.0674 4.75755 5.50697 5.99315 12.0458 4.53474 3.82707 3.64977 4.22045 8.32924 8.00657 3.61934
threshold=0.25913394747430801 2.9305391321812264 1.3287518154704874 -0.4258326539046467 1.7848192024385747 -0.8612105835147229 -0.478478084186167 1.946036493234967 -0.089601924552804565 -1.5908421439838993 -2.0511007799436261 2.4134752668342867 0.51015377974596665 1.5201825929226644 0.404385186805229 -2.88694817298718 -1.0767521299761222 -0.68392191934933211 -1.6461158482174749 -1.9615064940938718 1.0596973401244687 -2.1432380140950671 -0.016006280931080249 -0.98014857833210778 -1.2454052780674356 1.6517012938541475 0.26404700415222632 0.98541453479798247 -1.0000000180025095e-35 -1.1575710954830707
decision_type=2 2 2 2 2 2 2 2 2 2 2 2 2 2 2 2 2 2 2 2 2 2 2 2 2 2 2 2 2 2
left_child=1 2 4 -4 6 23 15 8 10 -10 12 13 -2 -11 -15 -1 17 19 -19 24 21 22 -21 -6 -17 26 27 -12 -28 -22
right_child=7 -3 3 -5 5 -7 -8 -9 9 11 25 -13 -14 14 -16 16 -18 18 -20 20 29 -23 -24 -25 -26 -27 28 -29 -30 -31
leaf_value=0.063761687015253185 -0.052583427065454318 0.12030508638971381 -0.043440570046521063 0.12346651469620225 -0.054073752893349362 0.09366977534686563 -0.038636227502937798 0.129228872255786 0.1356991461587535 -0.033434137501178768 -0.0086630173401302402 0.13340551636669704 0.057267358977376531 0.10800661134186063 -0.031146544440549664 0.026718232815782891 -0.031087029645269965 0.21369826190021701 0.032539260085153607 0.14310811959030584 0.12641741128909922 -0.027646103971032517 -0.05222380650237627 0.070780704423230603 -0.052256376607328764 0.026032645982716325 0.016327771195776941 0.11342657650781217 0.11248385942325929 -0.0010778103294533596
leaf_weight=3.1401435658335677 4.2073869481682769 3.039438158273696 5.2384129166603088 4.7099239528179151 7.7443898282945147 6.8623678907752028 77.733684349805117 2.6887581795454016 2.5593017637729671 14.100047305226331 3.0728747844696107 1.7003539353609074 3.6134886033833027 2.6116388738155356 1.9785749055445192 1.8331335783004767 36.767335560172796 1.7837301306426523 2.2523933053016654 1.6748584471642973 1.3693723231554034 10.23251717537641 1.4927265606820608 0.80262244120240112 9.4014490135014075 3.091594334691762 2.5768065974116388 2.5614390224218369 13.542189817875618 0.9379097484052189
leaf_count=30 107 14 124 24 180 75 2214 12 13 283 37 14 26 17 34 47 935 17 39 14 22 280 38 14 247 21 25 11 68 18
internal_value=-0.00134486 -0.016284 -0.0186703 0.0355796 -0.0219605 0.0182252 -0.0261271 0.0440115 0.0398916 0.014081 0.0580254 -0.00118377 -0.00182894 -0.0134281 0.0480258 -0.0124096 -0.0159403 0.00203712 0.112601 -0.0145262 0.00324321 -0.00904167 0.0510578 -0.0423491 -0.0393702 0.0768668 0.0840914 0.0468406 0.0971122 0.0745906
internal_weight=235.321 177.016 173.977 9.94834 164.029 15.4094 148.619 58.3045 55.6157 22.9499 32.6658 20.3906 7.82088 18.6903 4.59021 70.8856 67.7454 30.9781 4.03612 26.942 15.7074 13.4001 3.16759 8.54701 11.2346 24.8449 21.7533 5.63431 16.119 2.30728
internal_count=5000 4332 4318 148 4170 269 3901 668 656 361 295 348 133 334 51 1687 1657 722 56 666 372 332 52 194 294 162 141 48 93 40
is_linear=0
shrinkage=0.05


Tree=12
num_leaves=31
num_cat=0
split_feature=5 3 1 4 4 3 3 1 3 5 1 4 1 3 4 5 5 1 4 3 5 3 5 4 1 3 3 4 3 4
split_gain=57.7032 20.5614 12.9566 23.5642 9.30313 7.25348 9.03592 14.708 12.7217 11.8962 8.55275 8.08213 7.16744 6.15605 8.13124 7.63712 5.79259 5.26902 5.99557 20.955 7.26776 6.43518 9.06621 5.0028 3.94665 3.80861 4.26791 21.2731 3.3521 4.98654
threshold=0.25913394747430801 2.3494154316793114 1.3287518154704874 -0.4258326539046467 -0.39754837417406846 1.946036493234967 -0.089601924552804565 -1.5908421439838993 -2.0511007799436261 1.3204911714620193 0.51015377974596665 0.49341186977647311 -0.28344972947773212 1.551175126554748 -1.4004281796289062 -2.88694817298718 -0.11536050761748089 0.13359482320797569 -1.3413749887776143 -1.1976222396319831 -0.91145401503612578 -0.016006280931080249 -1.4709808240451507 -0.70374920829388954 0.46363228401750339 1.0596973401244687 -0.44370749283033462 -2.1432380140950671 -0.70843760008674739 1.8013575922478997
decision_type=2 2 2 2 2 2 2 2 2 2 2 2 2 2 2 2 2 2 2 2 2 2 2 2 2 2 2 2 2 2
left_child=1 2 4 -4 13 6 8 -8 10 -9 -2 -11 -3 15 -15 -1 17 18 19 -17 25 -20 -23 -18 -13 26 27 -21 -10 -30
right_child=5 12 3 -5 -6 -7 7 9 28 11 -12 24 -14 14 -16 16 23 -19 21 20 -22 22 -24 -25 -26 -27 -28 -29 29 -31
leaf_value=0.061167957272866717 -0.052456540946533875 0.0076505188920302078 -0.041851424016036622 0.11500435303119037 -0.034962313240342102 0.12124664885374975 0.12392920545474846 -0.032772565119109053 0.084936729401785011 -0.032608065614632288 0.052783614698653593 0.11576179157806823 0.10276343053483805 -0.055171232415246019 0.078564053934351397 0.17583151951424233 0.072515671387546929 -0.052239286581627346 -0.044463007671708993 0.15531811177497196 0.090386526527617223 0.1285803170785175 -0.02343794752106761 -0.051889243043850869 0.032762025112843311 0.050043515261922071 -0.038325858696201587 -0.051854078894710477 0.024469811873204142 0.10841587565346156
leaf_weight=3.179268103092908 4.0116267129778853 3.4671107195317745 4.7764288000762463 4.8011057004332525 80.410999534651637 2.7215331792831412 2.6594436019659069 12.012869484722616 16.356749247759581 2.3472043685615045 3.7214866057038307 3.103378638625145 4.6202115938067418 1.5943631418049333 3.9586251340806475 1.6260884627699876 3.0206065699458122 11.673071458935736 20.457769203931093 1.7978329136967657 1.6852479763328947 1.3698833398520944 3.4530280567705729 1.1032962314784516 2.6597276031970978 1.9152919240295876 14.380454860627649 3.9871096089482405 6.6008656509220618 2.4167295694351196
leaf_count=29 107 29 122 24 2329 12 13 258 91 48 26 14 21 24 52 15 36 324 612 11 26 28 83 32 28 37 382 116 59 12
internal_value=-0.00134855 -0.0158546 -0.0196656 0.0367785 -0.0231396 0.0415368 0.0376554 0.01342 0.0543328 -0.00118468 -0.00181073 0.0456028 0.0619876 -0.0104979 0.0401662 -0.0145372 -0.0181582 -0.0219544 -0.0149779 0.00218313 -0.00969806 -0.0322146 0.0197408 0.0392328 0.0774566 -0.0173367 -0.0237365 0.0125305 0.0714431 0.0469675
internal_weight=231.889 173.278 165.19 9.57753 155.613 58.6116 55.8901 22.7826 33.1075 20.1232 7.73311 8.11031 8.08732 75.2019 5.55299 69.6489 66.4697 62.3458 50.6727 25.392 23.7659 25.2807 4.82291 4.1239 5.76311 22.0807 20.1654 5.78494 25.3743 9.0176
internal_count=5000 4332 4282 146 4136 668 656 361 295 348 133 90 50 1807 76 1731 1702 1634 1310 587 572 723 111 68 42 546 509 127 162 71
is_linear=0
shrinkage=0.05


Tree=13
num_leaves=31
num_cat=0
split_feature=5 3 1 1 4 4 1 1 5 1 3 3 1 4 5 4 5 4 3 5 4 1 4 2 2 1 1 1 1 1
split_gain=52.487 18.606 31.789 15.9337 10.0894 7.94228 9.97706 8.08129 8.31345 32.0209 6.63186 10.3874 11.2856 12.6717 13.7193 6.57208 6.24386 5.63474 14.5509 6.29145 5.6086 4.88602 12.0213 3.97917 6.87549 7.79458 3.96863 3.59863 3.26551 3.23892
threshold=0.37260028046147436 1.8641425046017168 -1.0902922816846106 1.9072505192848312 -0.4258326539046467 -0.478478084186167 1.3287518154704874 -0.014661892716263778 -0.48799426071814239 -1.3568194792776056 -2.3672389819003405 -0.54016811884811222 -0.8612105835147229 0.72734807854500561 1.0221411040653336 -0.51910544748510623 -2.695582991387202 -1.3413749887776143 -1.1976222396319831 -0.91145401503612578 -1.0074476506305972 0.46363228401750339 2.0675121206589782 0.98472656894829347 1.0720117406053997 -0.95442244389003228 -0.62872238171249484 -0.17045735981855945 0.69026284596055898 -0.21256807018281812
decision_type=2 2 2 2 2 2 2 2 2 2 2 2 2 2 2 2 2 2 2 2 2 2 2 2 2 2 2 2 2 2
left_child=1 3 -3 5 -5 7 23 8 15 -10 28 -12 -13 -14 -15 16 26 18 -18 -20 -4 -16 -23 -7 25 -25 -1 -22 -2 -19
right_child=10 2 20 4 -6 6 -8 -9 9 -11 11 12 13 14 21 -17 17 29 19 -21 27 22 -24 24 -26 -27 -28 -29 -30 -31
leaf_value=-0.0046345327478025814 -0.052069391460917304 -0.054022984750461772 0.018871730975282039 -0.030828134693025741 0.096612187473994693 -0.041788182963294979 0.10985841240067572 -0.039790748320285535 0.16444860099845623 -0.053252350716761258 0.074808812718920148 0.090664209571627588 -0.029741360353288795 -0.031331204532954182 0.11424005454617576 0.13391194800102307 0.16374848096636965 -0.039856156077207827 -0.01534655408892615 0.12557568918756551 0.068020858676523605 -0.036848785775430493 0.11739105261334459 -0.0080922207247970546 -0.026511666165761272 0.19600336834866727 0.093708700287313082 0.13560644913241909 0.042670160376821475 0.057656074804056504
leaf_weight=1.9422234240919349 2.6616759058088055 6.1875359490513828 2.2341869324445716 2.3340891748666763 4.6413373947143546 63.755734184756875 1.1810867562890042 18.675298627465963 3.2176396548748016 3.555587299168109 19.944964535534382 5.8107429184019592 10.058029785752298 4.20886680856347 4.585541255772112 0.79040810093283553 1.2872904427349592 19.988173350691795 19.452346995472912 0.82562803477048419 3.3078108299523583 2.4408627040684223 2.6184963583946228 1.1447101794183252 11.541185475885866 0.79110428132116695 2.1743398904800406 4.8682482689619055 1.3817175328731535 0.88946820795536652
leaf_count=35 78 147 18 62 19 1934 11 493 25 76 106 39 215 79 20 17 13 569 494 12 38 28 14 35 332 16 13 29 10 23
internal_value=-0.00134683 -0.014631 0.0357313 -0.0199153 0.0539686 -0.0233235 -0.0343647 -0.0114307 -0.00164501 0.0501671 0.0418824 0.0468953 0.0281643 0.0129764 0.0439901 -0.00905654 -0.0114836 -0.017186 0.000739345 -0.00960883 0.0890785 0.076859 0.0429788 -0.0365702 -0.0118854 0.075315 0.0473097 0.108263 -0.0196948 -0.0357018
internal_weight=228.496 174.785 16.5978 158.188 6.97543 151.212 78.4138 72.7984 54.1231 6.77323 53.7109 49.6675 29.7225 23.9118 13.8538 47.3499 46.5595 42.4429 21.5653 20.278 10.4102 9.6449 5.05936 77.2327 13.477 1.93581 4.11656 8.17606 4.04339 20.8776
internal_count=5000 4411 232 4179 81 4098 2328 1770 1277 101 589 501 395 356 141 1176 1159 1111 519 506 85 62 42 2317 383 51 48 67 88 592
is_linear=0
shrinkage=0.05


Tree=14
num_leaves=31
num_cat=0
split_feature=5 3 1 1 4 4 1 1 5 3 3 1 4 5 1 4 3 4 3 5 4 3 3 1 5 5 2 2 1 5
split_gain=47.5601 17.0533 27.4588 14.8781 9.15354 7.83601 8.92549 7.27895 6.23525 5.8984 8.86113 9.61127 12.9876 8.59484 8.72546 17.6281 8.36126 5.59855 4.80101 4.78198 4.73737 25.3869 11.598 8.45088 20.099 4.41215 4.32801 5.93427 5.69368 3.72498
threshold=0.37260028046147436 1.7848192024385747 -0.91289107934574154 1.9072505192848312 -0.4258326539046467 -0.478478084186167 1.3287518154704874 -0.014661892716263778 -0.070728757740205747 -2.3672389819003405 -0.67985416913221552 -1.5908421439838993 -0.1529619965729436 1.0741376804954388 0.46363228401750339 2.1007447161012265 1.5006991456138261 -1.0350866244826882 -0.067938069761656769 -2.695582991387202 -2.1432380140950671 -0.19084913084967034 0.46747538318288917 -1.4309595198614529 -1.1468213295787602 -0.90091787010956004 0.98472656894829347 1.0720117406053997 -0.95442244389003228 -1.8427058691734957
decision_type=2 2 2 2 2 2 2 2 2 2 2 2 2 2 2 2 2 2 2 2 2 2 2 2 2 2 2 2 2 2
left_child=1 3 25 5 -5 7 26 8 19 -2 -11 -12 -13 16 -15 -16 18 -4 -14 -1 21 -21 -22 -24 -25 -3 -7 28 -28 -19
right_child=9 2 17 4 -6 6 -8 -9 -10 10 11 12 13 14 15 -17 -18 29 -20 20 22 -23 23 24 -26 -27 27 -29 -30 -31
leaf_value=0.044876358326288557 -0.019196768646445928 -0.053816579222212939 0.0042001067483527117 -0.030147315472668676 0.092555148143858706 -0.042635028329783442 0.096629458080821823 -0.03901454501214744 0.066177027753682213 0.071791170562622214 0.10997165921524221 -0.045650308314904763 0.03072386667056011 0.10275542630667514 -0.029563926844406681 0.148286750145357 0.11351137324949474 0.14356973666500769 -0.052710135715197774 0.11902416774473279 -0.034259940185915584 -0.052197339549226854 -0.018108680810050067 0.22189002998093851 -0.0010821634303611258 0.069710078174168508 -0.0077473338907095308 -0.025404080805387214 0.15964434406495678 0.07529439998917449
leaf_weight=4.1677507013082495 3.9512278325855723 7.0828348789364108 1.9783463776111592 2.2691278196871281 4.6034471839666358 59.6899533290416 1.2730457857251156 17.846198674291372 3.1449572481214991 18.440866086632013 3.2221317738294628 6.1196111701428917 2.7076085805892989 6.6056712009012681 4.8074510172009468 1.9618396908044813 1.3339838273823259 2.921296812593936 4.7471929714083645 3.8155159801244736 28.477595023810863 5.004213370382784 4.2507324069738388 1.6001658700406549 2.743501974269746 0.80504915490746665 1.1361105497926476 11.090432649478315 0.91886509582400222 6.3188934084027997
leaf_count=47 88 180 16 62 19 1894 11 491 36 97 14 128 25 35 61 9 10 17 122 27 871 138 84 19 46 12 35 327 16 63
internal_value=-0.001348 -0.0142476 0.0302748 -0.0198429 0.0520423 -0.0232463 -0.0346212 -0.011382 -0.00211326 0.0396115 0.0442638 0.0281514 0.0188301 0.0366338 0.0618735 0.0219798 -0.00177666 0.080536 -0.0224066 -0.00640355 -0.0110606 0.021875 -0.0188963 0.0320112 0.0810587 -0.0412093 -0.0369152 -0.0109432 0.0671004 0.0968797
internal_weight=225.036 171.138 19.1064 152.032 6.87258 145.159 74.1084 71.0506 53.2044 53.8976 49.9464 31.5055 28.2834 22.1637 13.375 6.76929 8.78879 11.2185 7.4548 50.0595 45.8917 8.81973 37.072 8.5944 4.34367 7.88788 72.8354 13.1454 2.05498 9.24019
internal_count=5000 4411 288 4123 81 4042 2283 1759 1268 589 501 404 390 262 105 70 157 96 147 1232 1185 165 1020 149 65 192 2272 378 51 80
is_linear=0
shrinkage=0.05


Tree=15
num_leaves=31
num_cat=0
split_feature=5 3 1 3 5 1 3 1 4 2 1 4 4 1 5 4 3 3 4 5 3 3 3 3 5 3 1 4 3 3
split_gain=43.3456 15.4224 23.2523 8.58695 8.17134 16.6404 15.6873 13.4253 25.034 7.74849 4.93984 4.74186 4.58164 8.55855 6.34679 7.16437 5.4354 5.26288 5.22158 4.41421 4.1694 3.94288 7.06005 3.843 7.52248 3.46564 3.23865 3.08555 18.9243 4.53457
threshold=-0.070728757740205747 1.7848192024385747 -0.8612105835147229 2.2867153214566223 0.82111887405031236 0.69026284596055898 -0.03458414488117189 -1.6319747912529921 -0.023322450159386939 -0.16855303054607731 1.62019322504716 -1.0350866244826882 0.22923322993054188 2.0398470086521105 -2.695582991387202 -2.4099499216139817 0.54845569331692279 -2.4163243551135394 0.20019998427503857 -0.93639304153850789 -1.5791408433940768 1.0596973401244687 1.1981076577399545 0.023110660366924 1.5201825929226644 1.4746124235572575 -0.24228380822553477 -2.1432380140950671 -0.44370749283033462 0.13679324103514559
decision_type=2 2 2 2 2 2 2 2 2 2 2 2 2 2 2 2 2 2 2 2 2 2 2 2 2 2 2 2 2 2
left_child=1 12 19 4 5 7 9 8 -2 -7 23 -4 14 -14 15 16 -1 -16 21 -3 -11 27 -23 -6 -25 -24 -13 28 -19 -29
right_child=3 2 11 -5 10 6 -8 -9 -10 20 -12 26 13 -15 17 -17 -18 18 -20 -21 -22 22 25 24 -26 -27 -28 29 -30 -31
leaf_value=0.062610354664983811 0.15955288698599226 -0.053626942739765218 0.0039821475329602785 0.11568568956224855 0.067705205995962123 0.013598287777121394 -0.053819931380635504 -0.035130185861002514 -0.052066478098436966 0.074059879546512039 -0.0076088429061726449 0.051789112515360052 -0.04146293238383416 0.082824372709851601 0.076619675497976644 0.098831178895546878 -0.057359827025768709 0.083903377232675089 0.08955705829598333 0.070613545220822554 0.14482516202050053 0.084626961868168815 -0.052188364543886756 -0.0066377513429146011 0.070964311565169289 0.011250934222200753 0.11446244380227473 -0.040414588480075939 -0.046325296469013483 -0.0033364176520570043
leaf_weight=1.5538031980395319 2.7809216678142548 6.8469294440001258 1.9821965619921673 2.7878933399915686 16.431149626150731 3.4565697871148577 2.8275443241000167 18.653320347890261 2.809326982125639 5.255530044436453 3.9789705686271182 3.4041443169116965 39.46969105489552 1.4354939460754383 1.3682426083832968 2.4258510246872893 2.4061000496149063 4.0176361948251715 1.0301464572548855 0.79828993603587317 3.4464870132505894 2.178807644173502 3.7648413050919753 6.4522604625672084 6.0520516894757748 5.027826115489006 5.2253802344202986 44.298580754548318 9.1268321778625161 10.131915641948579
leaf_count=15 14 182 16 12 112 35 64 459 86 32 35 41 1343 6 30 24 31 26 24 12 24 51 98 103 48 76 31 1433 281 256
internal_value=-0.00134894 -0.0171707 0.0258253 0.0295827 0.0262554 0.0108419 0.0522608 -0.0147611 0.0532056 0.0769304 0.0446263 0.0737204 -0.0232921 -0.0371013 -0.0168239 0.0311663 -0.0102854 -0.0206098 -0.0222816 -0.0406541 0.102087 -0.0237484 0.00405348 0.0518093 0.0309214 -0.0159125 0.0897393 -0.0282623 -0.00652061 -0.0335127
internal_weight=221.425 146.493 18.2569 74.932 72.1441 39.2297 14.9861 24.2436 5.59025 12.1586 32.9144 10.6117 128.236 40.9052 87.3306 6.38575 3.9599 80.9448 79.5766 7.64522 8.70202 78.5464 10.9715 28.9355 12.5043 8.79267 8.62952 67.575 13.1445 54.4305
internal_count=5000 3976 282 1024 1012 714 155 559 100 91 298 88 3694 1349 2345 70 46 2275 2245 194 56 2221 225 263 151 174 72 1996 307 1689
is_linear=0
shrinkage=0.05


Tree=16
num_leaves=31
num_cat=0
split_feature=5 3 1 3 3 1 1 3 5 4 5 4 4 1 5 4 3 3 4 5 5 4 3 3 1 3 5 4 3 3
split_gain=39.5243 14.2144 20.7274 7.75472 7.18811 19.2436 15.2931 14.3261 12.6014 8.90118 6.08368 5.8394 4.45391 7.98278 5.78927 6.04167 4.95733 4.67565 4.55763 4.44804 4.26111 4.08433 3.7323 5.96257 3.54313 3.30165 3.14356 2.90826 17.0882 4.40816
threshold=-0.070728757740205747 1.7848192024385747 -0.8612105835147229 1.946036493234967 0.023110660366924 -1.6104433596904577 0.084952240417401473 -0.98943847798598328 1.3204911714620193 0.22923322993054188 1.3204911714620193 0.49341186977647311 0.22923322993054188 2.0398470086521105 -2.695582991387202 -2.4099499216139817 0.54845569331692279 -2.4163243551135394 0.20019998427503857 0.55245769635733233 -0.90091787010956004 -1.0350866244826882 1.0596973401244687 1.1981076577399545 -0.8612105835147229 1.4746124235572575 -1.8427058691734957 -2.1432380140950671 -0.44370749283033462 0.13679324103514559
decision_type=2 2 2 2 2 2 2 2 2 2 2 2 2 2 2 2 2 2 2 2 2 2 2 2 2 2 2 2 2 2
left_child=1 12 20 4 6 -6 7 -2 -7 19 -11 -10 14 -14 15 16 -1 -16 22 -8 -3 -4 27 -24 -9 -25 -23 28 -19 -29
right_child=3 2 21 -5 5 8 9 24 11 10 -12 -13 13 -15 17 -17 -18 18 -20 -21 -22 26 23 25 -26 -27 -28 29 -30 -31
leaf_value=0.05741534602938847 -0.048073452932024835 -0.053451454209949095 0.0037759026132809905 0.10085051522897265 0.11450021038378287 -0.03765402244026092 -0.016384808904902539 0.11170423248900763 -0.031252955308410907 0.092767319311730739 0.03075447649863396 0.063751651264993742 -0.040995890798786322 0.080215254710267567 0.069483132768027617 0.088851993558634726 -0.056979996017201912 0.077335024456651538 0.079029154964555315 0.050194723373304766 0.067906394606770185 0.12375527719089661 0.074457364962480704 -0.052077567804652961 0.026625128655502751 0.010597962652622125 0.061256221118847702 -0.039912524379619826 -0.046002318521599465 -0.0031793807619850904
leaf_weight=1.6081924587488177 8.2734831888228619 6.5662482827901849 1.9858459196984757 3.4932277947664252 3.4749155044555691 15.743971979245545 4.7824040688574332 1.9053974188864229 2.2026001401245576 14.742454256862404 5.4049591012299052 6.0876979418098927 37.961736768484116 1.40874883532524 1.4316007923334826 2.559673521667718 2.3036238066852093 4.1376505568623534 1.1068569030612696 5.2761245630681515 0.81285648047924208 3.0948280915617934 2.3478248566389075 3.5886546429246646 3.4204697590321311 5.0696167442947626 5.7500046230852595 42.654879972338684 8.7411399260163218 10.101535547524689
leaf_count=15 233 183 16 16 17 389 80 19 47 77 25 43 1343 6 30 24 31 26 24 39 11 17 51 98 39 76 55 1433 281 256
internal_value=-0.00134298 -0.0167277 0.0245443 0.0281135 0.0245506 0.00451913 0.0371301 -0.00689912 -0.0113821 0.056953 0.0761311 0.0385104 -0.022739 -0.0366587 -0.0163407 0.0291288 -0.00995076 -0.020057 -0.0217057 0.018539 -0.0400831 0.0685759 -0.0231606 0.00378445 0.0570633 -0.0153796 0.0831248 -0.0276789 -0.00637695 -0.032879
internal_weight=218.039 143.232 18.2098 74.8077 71.3145 27.5092 43.8053 13.5994 24.0343 30.2059 20.1474 8.2903 125.022 39.3705 85.6512 6.47149 3.91182 79.1798 77.7482 10.0585 7.3791 10.8307 76.6413 11.0061 5.32587 8.65827 8.84483 65.6352 12.8788 52.7564
internal_count=5000 3976 282 1024 1008 496 512 291 479 221 102 90 3694 1349 2345 70 46 2275 2245 119 194 88 2221 225 58 174 72 1996 307 1689
is_linear=0
shrinkage=0.05


Tree=17
num_leaves=31
num_cat=0
split_feature=5 3 1 3 3 1 1 3 5 4 5 4 1 4 1 5 1 5 1 5 3 3 4 1 4 1 5 1 5 5
split_gain=36.1125 13.1 18.5087 7.05749 6.38337 17.0104 13.5382 13.0622 11.6071 7.89142 5.34195 5.24805 4.63488 4.32545 7.45249 5.28711 5.52185 4.22478 4.20727 6.35367 4.17027 4.10557 8.29878 9.57421 7.50617 8.97213 20.8334 9.6846 9.36262 4.01299
threshold=-0.070728757740205747 1.7848192024385747 -0.8612105835147229 1.946036493234967 0.023110660366924 -1.6104433596904577 0.084952240417401473 -0.98943847798598328 1.3204911714620193 0.22923322993054188 1.3204911714620193 1.3416488017163022 0.404385186805229 0.22923322993054188 2.0398470086521105 -2.695582991387202 -0.66496091597395568 -0.82953287138614462 1.1572403117142065 0.55245769635733233 -2.4163243551135394 0.42827073475741462 -2.4766943169996769 -0.65322685977093797 -1.9413548027231868 -1.4309595198614529 -1.3625895955360356 -1.2755537884612786 -0.57526389983076387 -0.73956879979285528
decision_type=2 2 2 2 2 2 2 2 2 2 2 2 2 2 2 2 2 2 2 2 2 2 2 2 2 2 2 2 2 2
left_child=1 13 17 4 6 -6 7 -2 -7 18 -11 12 -10 15 -15 16 -1 -3 19 -8 -17 22 23 -22 -23 28 -27 -28 -26 -29
right_child=3 2 -4 -5 5 8 9 -9 11 10 -12 -13 -14 14 -16 20 -18 -19 -20 -21 21 24 -24 -25 25 26 27 29 -30 -31
leaf_value=-0.032903682469742242 -0.047679949764129564 -0.053288623726570311 0.06385993729148999 0.096408792019297529 0.10628780464899223 -0.037003782932019919 -0.016811326590654027 0.052780829586566581 0.052160577378938748 0.086972763168387104 0.029068252019703852 0.076200771294055086 -0.053434659722241665 -0.040519884606132026 0.07788619083705145 0.063286740385709014 0.062336148352278298 0.068142094341258341 -0.024236097303281329 0.084762687673769585 0.10838180839851584 -0.052191525752927043 -0.034190954136968543 -0.052211253881505992 -0.045149293883409422 0.18968187738361109 0.12791111541222422 0.030425854889025078 0.13745843027507981 -0.054328081339481873
leaf_weight=2.4079140517860651 7.9333048276603195 6.3151604086160669 11.042174883186815 3.4719573445618144 3.5540404990315464 15.232667194679381 2.6403575409203786 5.4643354006111631 1.9814756028354148 14.933178283274176 5.4318519011139861 4.1537891402840614 2.1851953715085983 36.523895962163806 1.3790802061557759 1.4915460385382164 4.1360938288271418 0.80792500078678298 3.7812869381159544 3.6928188316524029 2.2519183065742259 5.82836835831404 49.519133273512125 1.578736888244747 6.8457454107701814 1.9997143968939779 1.3498036004602898 2.3151805866509672 0.78213578835129816 3.5203098244965054
leaf_count=44 233 184 88 16 17 389 54 58 20 77 25 21 49 1343 6 30 26 10 38 27 18 176 1644 48 171 25 25 44 14 80
internal_value=-0.00133395 -0.0162885 0.0233236 0.0268041 0.0233996 0.00432345 0.0351848 -0.00670621 -0.0110624 0.0535985 0.0715282 0.0364297 -0.00321846 -0.02219 -0.0362117 -0.015865 0.027292 -0.0395155 0.0174979 0.0424156 -0.0195099 -0.021135 -0.0287062 0.0421962 -0.00329517 0.0136553 0.0469411 0.00721537 -0.0264253 -0.0207027
internal_weight=214.551 140.095 18.1653 74.4563 70.9843 27.1072 43.8771 13.3976 23.5531 30.4795 20.365 8.32046 4.16667 121.93 37.903 84.0266 6.54401 7.12309 10.1145 6.33318 77.4826 75.991 53.3498 3.83066 22.6413 16.8129 9.18501 7.18529 7.62788 5.83549
internal_count=5000 3976 282 1024 1008 496 512 291 479 221 102 90 69 3694 1349 2345 70 194 119 81 2275 2245 1710 66 535 359 174 149 185 124
is_linear=0
shrinkage=0.05


Tree=18
num_leaves=31
num_cat=0
split_feature=5 3 1 3 3 1 1 3 5 4 4 5 5 4 1 5 4 3 1 5 4 3 1 4 5 0 4 3 1 1
split_gain=33.0545 12.0811 16.5223 6.45104 5.67849 15.1273 12.0309 11.9464 10.715 7.01118 4.93938 4.75911 4.72899 4.18467 6.96251 4.84767 5.19801 5.1926 3.7581 5.49334 3.73917 3.87284 3.51657 6.17301 9.38037 6.13615 3.49032 3.41589 8.16105 3.14647
threshold=-0.070728757740205747 1.7848192024385747 -0.8612105835147229 1.946036493234967 0.023110660366924 -1.6104433596904577 0.084952240417401473 -0.98943847798598328 1.3204911714620193 0.22923322993054188 0.49341186977647311 -0.64194103108708278 1.3204911714620193 0.22923322993054188 2.0398470086521105 -2.695582991387202 -2.4099499216139817 0.49981494918382674 1.1572403117142065 0.55245769635733233 0.20019998427503857 -2.4163243551135394 -0.10963805196877217 -1.0350866244826882 -0.91145401503612578 0.3679676206892506 -1.0350866244826882 -0.016006280931080249 -0.4758043845854048 -0.24228380822553477
decision_type=2 2 2 2 2 2 2 2 2 2 2 2 2 2 2 2 2 2 2 2 2 2 2 2 2 2 2 2 2 2
left_child=1 13 11 4 6 -6 7 -2 -7 18 -10 -3 -11 15 -15 16 17 -1 19 -8 21 -17 23 24 -23 -26 -4 -25 -29 -28
right_child=3 2 26 -5 5 8 9 -9 10 12 -12 -13 -14 14 -16 20 -18 -19 -20 -21 -22 22 -24 27 25 -27 29 28 -30 -31
leaf_value=0.061270585129796586 -0.047281308561408733 -0.053155923211201717 0.00033112933146823567 0.092473917582658841 0.099252338177247615 -0.036348559649780877 -0.016203167396814062 0.048996309300950856 -0.030698867928001534 0.081816950333736885 0.057463868578094837 0.082856944125934709 0.027491777844859684 -0.04003472073725204 0.075796671443479596 0.057858293694178657 0.079391110115021937 -0.056895311644408177 -0.023379909909197371 0.078043033081399552 0.069392223170444897 -0.011779228717922804 -0.042592671715641059 -0.045825903886563553 0.014462010644521668 0.13414320067068242 0.037485092710367318 -0.02484388499708845 0.11578308148707178 0.096845787073554138
leaf_weight=1.519739877432585 7.608425006270406 6.1586377304047355 2.0476532094180575 3.4395039826631537 3.6140040978789356 14.744376823306085 2.6034453958272952 5.5887353010475644 2.1419149041175825 15.076540507376196 6.151105634868145 0.71813517808914351 5.4555330500006667 35.153080988675356 1.3470528423786152 1.5483693294227112 2.6773313842713824 2.3945545274764299 3.7252265103161335 3.8071198463439941 1.1778660379350174 23.105923866853121 16.214033333584666 17.844664920121431 2.3741846773773387 1.9511411041021345 3.7854587696492663 10.46776547282934 1.1444881241768659 5.4410912171006194
leaf_count=13 233 186 16 16 17 389 54 58 47 77 43 8 25 1343 6 30 24 33 38 27 24 652 552 662 39 21 41 270 25 31
internal_value=-0.00133092 -0.0158664 0.0221287 0.0256094 0.022348 0.00414513 0.0334077 -0.00650965 -0.0107749 0.0505851 0.0346933 -0.0389522 0.0673823 -0.0216657 -0.0357599 -0.015424 0.0257042 -0.0110169 0.0165591 0.039768 -0.0189992 -0.0203938 -0.0220513 -0.0161966 0.00087119 0.0684498 0.0593854 -0.0320908 -0.0109839 0.0724913
internal_weight=211.027 137.071 18.151 73.9559 70.5164 26.6514 43.865 13.1972 23.0374 30.6679 8.29302 6.87677 20.5321 118.92 36.5001 82.4201 6.59163 3.91429 10.1358 6.41057 75.8284 74.6506 73.1022 56.8882 27.4312 4.32533 11.2742 29.4569 11.6123 9.22655
internal_count=5000 3976 282 1024 1008 496 512 291 479 221 90 194 102 3694 1349 2345 70 46 119 81 2275 2251 2221 1669 712 60 88 957 295 72
is_linear=0
shrinkage=0.05


Tree=19
num_leaves=31
num_cat=0
split_feature=5 3 1 3 3 1 3 1 5 4 1 5 4 4 1 5 1 1 4 5 3 3 4 3 4 1 5 5 1 5
split_gain=30.2412 11.1349 14.8836 5.92512 5.25192 14.6163 12.4558 14.112 11.2261 9.23983 10.9067 5.16144 4.51205 4.0636 6.50857 4.42906 4.89671 3.43333 5.83092 3.36749 3.34932 3.68452 7.52475 7.98054 6.91291 7.6417 16.088 9.11842 8.32026 3.66372
threshold=-0.070728757740205747 1.7848192024385747 -0.8612105835147229 1.946036493234967 -0.44370749283033462 -1.6104433596904577 -1.6185113201218213 0.51015377974596665 1.0741376804954388 2.1007447161012265 0.46363228401750339 -0.59736276557475498 0.29645346816051454 0.22923322993054188 2.0398470086521105 -2.695582991387202 -0.66496091597395568 -0.8860156713021331 -0.81765615556320703 1.5201825929226644 -2.4163243551135394 0.42827073475741462 -2.4766943169996769 -0.19084913084967034 -1.9413548027231868 -1.4309595198614529 -1.3625895955360356 -0.5397163035940904 -1.2880596765888479 -0.73956879979285528
decision_type=2 2 2 2 2 2 2 2 2 2 2 2 2 2 2 2 2 2 2 2 2 2 2 2 2 2 2 2 2 2
left_child=1 13 11 4 6 -6 7 -2 17 10 -10 -3 -9 15 -15 16 -1 18 -7 -8 -17 22 23 -22 -23 27 -27 -26 -28 -30
right_child=3 2 -4 -5 5 8 19 12 9 -11 -12 -13 -14 14 -16 20 -18 -19 -20 -21 21 24 -24 -25 25 26 28 -29 29 -31
leaf_value=-0.032898860632210418 -0.047804091898618201 -0.05307155594415941 0.055769527045029847 0.088957969797483674 0.098834929236632868 -0.055472638946390429 0.07025217536997759 0.0052803154656692461 0.059029655600505639 0.12167318192213904 -0.044736717532681422 0.094063135102809795 0.074777179710414393 -0.0395402500879945 0.073913637004876548 0.05306674276711261 0.056499856098810669 -0.040724380013791528 0.094548109948269954 0.012287842358245246 0.098418648806689893 -0.052086685129467958 -0.032983340211414768 -0.051537524985260631 -0.044769240319730397 0.15884965206187895 0.11260559772696488 0.13532538739962596 0.026297957427572058 -0.054227360212620257
leaf_weight=2.3986378498375416 7.5626995582133558 5.9773303288966426 11.401394028216599 3.397715523838996 3.8355097845196715 1.2583662457764151 16.688623249530796 4.210716810077427 5.4362986944615823 2.2992287725210181 4.7405442912131548 0.66206682473421263 5.2443549484014511 33.846327979117632 1.3131601810455311 1.6023060120642174 4.2381104715168467 14.490625318139793 1.3346810750663305 2.9483447372913352 2.3037186302244668 5.4515299387276199 46.657011467963457 1.4429925829172123 6.5888131279498374 2.256935428828001 1.4637998417019842 0.78676855936646539 2.4170648418366905 3.3987479917705028
leaf_count=44 237 187 88 16 18 17 120 37 42 10 87 7 24 1343 6 30 26 378 25 13 15 176 1644 51 173 25 24 12 45 80
internal_value=-0.00131696 -0.0154326 0.0211133 0.0244757 0.0213481 0.00700483 0.0344159 0.0031064 -0.00491053 0.0311461 0.0106935 -0.0383996 0.0438275 -0.0211083 -0.0353029 -0.0149473 0.0241896 -0.0312424 0.0217453 0.0615493 -0.0184399 -0.0200144 -0.0275088 0.0406652 -0.00312356 0.0126594 0.042217 -0.0255582 0.00605675 -0.0207609
internal_weight=207.654 134.207 18.0408 73.4477 70.05 33.3953 36.6547 17.0178 29.5597 12.4761 10.1768 6.6394 9.45507 116.166 35.1595 81.0064 6.63675 17.0837 2.59305 19.637 74.3697 72.7674 50.4037 3.74671 22.3637 16.9121 9.53655 7.37558 7.27961 5.81581
internal_count=5000 3976 282 1024 1008 577 431 298 559 139 129 194 61 3694 1349 2345 70 420 42 133 2275 2245 1710 66 535 359 174 185 149 125
is_linear=0
shrinkage=0.05


Tree=20
num_leaves=31
num_cat=0
split_feature=5 3 1 3 3 1 1 3 1 5 5 4 5 5 3 5 4 1 5 3 3 5 3 4 1 4 3 3 1 4
split_gain=27.7113 10.2706 13.3581 5.4587 4.72034 12.0988 7.50513 11.1008 9.37659 8.08071 6.33398 5.58392 5.29735 4.67689 4.36328 4.82298 3.92187 6.08705 4.06539 6.06344 4.57027 3.70804 3.53603 3.28552 3.61417 6.00915 11.3505 5.25646 5.83538 3.28463
threshold=-0.070728757740205747 1.7848192024385747 -0.8612105835147229 1.946036493234967 0.37975549353323013 -0.94212139786271465 0.084952240417401473 -0.98943847798598328 -1.448488919460508 1.3896233741485196 1.6517012938541475 0.22923322993054188 1.4573128412800334 -0.59736276557475498 -0.54016811884811222 1.0221411040653336 0.22923322993054188 2.0398470086521105 -2.695582991387202 -3.1073360356357789 1.1334522630223189 0.55245769635733233 -2.0129866649954575 0.20019998427503857 -0.10963805196877217 -1.3413749887776143 -1.1976222396319831 -0.016006280931080249 -0.4758043845854048 -1.0350866244826882
decision_type=2 2 2 2 2 2 2 2 2 2 2 2 2 2 2 2 2 2 2 2 2 2 2 2 2 2 2 2 2 2
left_child=1 16 13 4 6 -6 7 -2 -9 -10 11 21 -7 -3 22 -16 18 -18 20 -20 -1 -8 -13 24 25 26 -21 -27 29 -29
right_child=3 2 -4 -5 5 12 10 8 9 -11 -12 14 -14 -15 15 -17 17 -19 19 23 -22 -23 -24 -25 -26 27 -28 28 -30 -31
leaf_value=0.051860519800734417 -0.046756260597967482 -0.052928145946817176 0.052091486165704151 0.085791921971689847 0.066296649748882983 -0.043201443899313907 -0.015065949809444158 0.15175745568654089 -0.026372489598573343 0.088135401009094533 -0.019825476585244708 0.036718904265417775 0.025560003790697117 0.083123074088715887 -0.02222002026098106 0.064870712458708277 -0.039036359710900102 0.072209835609522099 0.19621209824158156 0.12871884567935513 -0.036226273181200232 0.047376064543400133 0.091652945985017414 0.061908222368827009 -0.041897266292922036 -0.042193820319482073 -0.0043546485423610181 0.047948525536623196 0.10141304072000223 -0.0240875316707089
leaf_weight=4.4708665776997796 7.063490025699136 5.700829755514861 11.591001633554695 3.3481944240629664 4.97347588464618 10.246245166286824 4.6757422909140605 1.4985460340976713 4.4179598800837994 2.3657090440392494 3.7888769600540391 3.9637059010565272 3.8547207042574874 0.71038620173931288 2.7321015186607829 3.8017651196569204 32.600787915289402 1.277832269668578 0.32902247458696265 1.7485923022031808 2.1956855915486813 4.8372212834656239 11.225558437407019 1.2358784861862648 15.251832228153942 21.802354348823421 19.166039664298289 1.8738939650356758 1.2308036088943612 10.174064839258788
leaf_count=43 233 187 88 16 38 296 81 7 83 12 34 20 41 7 46 27 1343 6 2 15 27 41 49 24 556 852 504 27 25 270
internal_value=-0.00131104 -0.0150241 0.0200591 0.023435 0.0204286 -0.000754996 0.0284504 -0.000707477 0.0385652 0.0135605 0.0412255 0.0486309 -0.0244044 -0.0378532 0.0626205 0.0284542 -0.0205956 -0.0348404 -0.0145237 -0.0179454 0.0228484 0.016685 0.0773177 -0.0189175 -0.0203195 -0.0144423 0.00677112 -0.0270893 -0.00228923 -0.0128833
internal_weight=204.153 131.36 18.0022 72.7933 69.4451 19.0744 50.3707 15.3457 8.28221 6.78367 35.025 31.2361 14.101 6.41122 21.7231 6.53387 113.358 33.8786 79.479 72.8125 6.66655 9.51296 15.1893 72.4835 71.2476 55.9957 20.9146 35.0811 13.2788 12.048
internal_count=5000 3976 282 1024 1008 375 633 335 102 95 298 264 337 194 142 73 3694 1349 2345 2275 70 122 69 2273 2249 1693 519 1174 322 297
is_linear=0
shrinkage=0.05


Tree=21
num_leaves=31
num_cat=0
split_feature=5 3 1 3 5 3 1 1 3 5 4 5 4 1 5 3 3 1 2 4 3 3 4 4 4 0 1 4 1 1
split_gain=25.3964 9.46325 12.0141 5.04302 4.83127 4.38516 11.0812 8.82167 9.58374 8.61287 5.53323 4.55902 4.25899 3.8597 5.20183 6.91613 3.31059 3.38986 3.23616 3.23685 4.25634 5.6794 3.50368 3.409 7.27441 3.15622 3.73158 3.02796 3.11939 2.95739
threshold=-0.070728757740205747 1.7848192024385747 -0.8612105835147229 1.946036493234967 -0.53091936377185156 0.023110660366924 -1.6104433596904577 0.084952240417401473 -0.98943847798598328 1.3204911714620193 0.47269322287334786 1.3204911714620193 0.49341186977647311 -2.8604101392827075 -2.8243174774479152 1.2333511896447884 -2.4163243551135394 1.9072505192848312 2.3827424624243485 0.22923322993054188 1.0596973401244687 1.1219267718311088 0.20019998427503857 -1.4375739640272476 -1.1942069361056029 -0.68968513262976183 -0.28344972947773212 -1.0350866244826882 -0.24228380822553477 2.0398470086521105
decision_type=2 2 2 2 2 2 2 2 2 2 2 2 2 2 2 2 2 2 2 2 2 2 2 2 2 2 2 2 2 2
left_child=1 13 4 5 -3 7 -7 8 -2 25 -9 -12 -11 -1 15 -15 17 -16 19 20 22 -22 -18 -23 -25 26 -8 -4 -29 -21
right_child=3 2 27 -5 -6 6 9 10 -10 12 11 -13 -14 14 16 -17 18 -19 -20 29 21 23 -24 24 -26 -27 -28 28 -30 -31
leaf_value=-0.05159142807373434 -0.04634015316838011 -0.052814436019650135 -0.0049704023294494769 0.082920724302372628 0.088509429656269165 0.082987763279061932 0.084141267323299698 0.019369027680158617 0.04156779666898034 -0.030998327591874382 0.078478676920434684 0.022003940815077738 0.050979921192298876 0.072147072945542484 -0.0060049334906860496 -0.055058562468105657 -0.023877832552188571 0.11038706412239402 0.059672530619448716 -0.039765841302466895 0.11657949977610305 -0.053357515004907978 0.088990063725700286 0.12201728420937918 -0.0061576881762068995 -0.048136424799669238 -0.030217041709211086 0.027654490070244911 0.085239462132728774 0.070662601651486232
leaf_weight=8.9247179701924306 6.7778213638812277 5.5120547022670516 2.1455962583422652 3.2923338152468196 0.67926586791873145 3.717550657689574 1.0829476416110995 13.260132042691113 5.7143421880900869 2.1350984182208759 12.416739586740734 5.0176768526434889 6.1419647336006165 3.4304514564573756 1.8215167317539447 1.551950581371784 53.796415833756328 0.95278852432966221 1.2134863454848517 26.092956891283396 1.1458792574703682 2.3739188723266116 0.69648220762610336 1.3230297453701476 6.7780328672379255 10.430304467678068 2.0900877509266165 4.0957877747714511 5.5229573696851721 0.62072177231311698
leaf_count=336 233 188 16 16 6 17 24 134 58 47 64 23 43 43 52 40 1836 5 26 1114 20 50 14 12 143 307 58 41 31 3
internal_value=-0.00129301 -0.0146027 0.0190682 0.0224687 -0.0373094 0.0195752 0.00317722 0.0292947 -0.00612806 -0.0103828 0.0437111 0.0622251 0.0298333 -0.0200631 -0.017299 0.0325242 -0.019863 0.0339679 -0.0214511 -0.0225116 -0.0165767 0.0108955 -0.0224353 -0.000665484 0.0147753 -0.0348527 0.00881311 0.0487385 0.060719 -0.0371999
internal_weight=200.755 128.678 17.9557 72.077 6.19132 68.7847 25.598 43.1867 12.4922 21.8804 30.6945 17.4344 8.27706 110.722 101.798 4.9824 96.8152 2.77431 94.0409 92.8274 66.1138 11.6209 54.4929 10.475 8.10106 13.6033 3.17304 11.7643 9.61875 26.7137
internal_count=5000 3976 282 1024 194 1008 496 512 291 479 221 87 90 3694 3358 83 3275 57 3218 3192 2075 225 1850 205 155 389 82 88 72 1117
is_linear=0
shrinkage=0.05


Tree=22
num_leaves=31
num_cat=0
split_feature=5 3 1 5 3 5 1 1 4 2 1 5 1 5 3 3 4 1 4 4 3 3 1 2 2 1 1 3 3 1
split_gain=23.2351 8.71582 10.8932 5.41403 4.69926 4.10967 10.3304 8.63577 12.4726 7.62176 4.75073 6.39637 3.77978 4.79967 6.59159 3.02938 3.01935 3.56428 6.44817 3.61675 11.5523 7.90935 4.50511 2.94821 6.60385 3.28786 4.29056 3.19943 3.17468 2.8355
threshold=-0.070728757740205747 1.7848192024385747 -0.8612105835147229 -0.49898227409560592 2.2867153214566223 0.82111887405031236 0.69026284596055898 -1.6319747912529921 -0.023322450159386939 -0.73158141912894725 1.1572403117142065 1.6517012938541475 -2.8604101392827075 -2.88694817298718 1.2333511896447884 -2.4163243551135394 0.22923322993054188 -0.014661892716263778 -0.4258326539046467 -1.3413749887776143 -1.1976222396319831 -0.016006280931080249 -0.4758043845854048 -0.53610526786419266 -0.036701578866898343 -0.87440605994613285 -1.4581847318889634 1.1832236865224701 -0.85608660396554559 0.59002722373953087
decision_type=2 2 2 2 2 2 2 2 2 2 2 2 2 2 2 2 2 2 2 2 2 2 2 2 2 2 2 2 2 2
left_child=1 12 3 -3 5 6 7 8 -2 -8 -7 -12 -1 14 -14 29 17 19 -19 20 -17 -21 -23 -22 25 26 -25 28 -26 -15
right_child=4 2 -4 -5 -6 10 9 -9 -10 -11 11 -13 13 15 -16 16 -18 18 -20 21 23 22 -24 24 27 -27 -28 -29 -30 -31
leaf_value=-0.051512448226962007 0.10152286188895328 -0.052787203150519268 0.046026048185562489 0.10464038132736334 0.086659604855820194 0.043379130841889005 -0.044608632545499884 -0.032779149770965514 -0.052510773324379159 0.055262364072416539 0.028955693740412194 -0.064134967848477387 0.077583573684624596 -0.0047404327337910871 -0.055069753448492666 0.13087885304352453 -0.035044131772561986 -0.044286233237397721 0.133657027709361 -0.042570302721364778 -0.040815157234383476 -0.0024878328291443891 0.084554141632821614 0.071784979156540446 0.049853599146827736 0.10928230463559732 -0.05247187971535483 0.059840018722243975 -0.035960229312517814 0.10183819885233703
leaf_weight=8.5021420214325172 3.2819207608699799 5.3705698084086189 11.833154458552597 0.60795735567808318 2.6633743196725836 23.879009012132883 2.2585401814430961 16.236574200913314 2.191971940919756 12.392122846096751 5.9497027397155744 2.6748776938766241 2.9127901531755915 1.7749465461820357 1.38021176867187 1.7222160659730459 26.127592206001282 13.375216789543627 0.52925791963934798 17.256576808169484 4.2902026083320424 12.182813005521892 1.6931842714548206 1.7675378192216156 1.2352490630000836 1.7747722025960726 1.1446110159158709 1.2545480858534563 8.4537412226199926 0.96246345713734616
leaf_count=336 14 189 88 5 12 218 36 459 86 119 50 30 34 51 36 14 1133 510 14 723 128 288 31 29 22 34 31 16 258 6
internal_value=-0.00127262 -0.0141804 0.0182326 -0.0367784 0.0214925 0.0189721 0.00742371 -0.0144692 0.0398415 0.0398663 0.0318911 8.40128e-05 -0.0195093 -0.0167839 0.0349352 -0.0191078 -0.0206368 -0.0149915 -0.037513 -0.00905791 0.00664078 -0.0199714 0.00813325 -0.00410006 0.00597739 0.0556387 0.0229462 -0.0152916 -0.0250198 0.0327322
internal_weight=197.68 126.152 17.8117 5.97853 71.5281 68.8647 36.3611 21.7105 5.47389 14.6507 32.5036 8.62458 108.34 99.8379 4.293 95.5449 92.8075 66.6799 13.9045 52.7755 21.6429 31.1326 13.876 19.9207 15.6305 4.68692 2.91215 10.9435 9.68899 2.73741
internal_count=5000 3976 282 194 1024 1012 714 559 100 155 298 80 3694 3358 70 3288 3231 2098 524 1574 532 1042 319 518 390 94 60 296 280 57
is_linear=0
shrinkage=0.05


Tree=23
num_leaves=31
num_cat=0
split_feature=5 3 1 5 3 3 1 3 1 5 4 1 1 5 5 4 4 2 1 4 3 1 5 4 2 4 4 3 2 3
split_gain=21.2427 8.03633 9.83435 4.8769 4.38611 4.15667 10.0933 9.15843 10.5871 8.63653 8.00441 9.10441 3.6911 7.79694 5.07114 11.3118 3.6687 3.36943 3.13582 5.05565 2.92629 2.90871 2.34047 5.27786 4.37981 4.63436 10.9076 17.9194 6.58186 6.25792
threshold=-0.070728757740205747 1.7848192024385747 -0.8612105835147229 -0.49898227409560592 1.946036493234967 -0.44370749283033462 -1.6104433596904577 -1.6185113201218213 0.51015377974596665 1.0741376804954388 2.1007447161012265 0.46363228401750339 -1.9615064940938718 -2.8243174774479152 -0.66944260445911474 0.078596782534344836 0.29645346816051454 2.3827424624243485 -0.8860156713021331 -0.81765615556320703 -2.5839176284700671 1.5492970428020505 -1.3625895955360356 -2.5190686028101634 -0.64902369556444295 -2.1715856665291944 -0.16872710273236333 0.42827073475741462 -0.073565200785298282 -0.52089997873910687
decision_type=2 2 2 2 2 2 2 2 2 2 2 2 2 2 2 2 2 2 2 2 2 2 2 2 2 2 2 2 2 2
left_child=1 12 3 -3 5 7 -7 8 -2 18 11 -11 14 -14 -1 -16 -10 20 19 -8 -15 -9 24 -24 -22 29 27 28 -27 -26
right_child=4 2 -4 -5 -6 6 9 21 16 10 -12 -13 13 17 15 -17 -18 -19 -20 -21 22 -23 23 -25 25 26 -28 -29 -30 -31
leaf_value=-0.045249510184756522 -0.046964517962195522 -0.052656088931593625 0.04318337250333313 0.092573448113487042 0.078020373458635037 0.080033361785739623 -0.055399138919366889 0.062918690696570342 0.0016163648676264552 0.050196936806906914 0.10938495510462261 -0.044748231373963138 0.056434084091936898 0.065657349952096253 0.13337796232246663 -0.051215496438376008 0.063881168422395843 0.069887929772421628 -0.03975570497050214 0.083157072601360627 -0.045407245201577962 0.016347585420627059 0.080981192183492673 -0.028869632632016431 0.066061117183126392 0.10595999765739766 -0.029187177004387107 0.16797118608229111 -0.025944617422620959 -0.052415166876540992
leaf_weight=21.075582761317495 6.5973319523036507 5.1210437323898086 11.977640546858309 0.65161616355180907 3.1666810959577552 3.9235882163047782 1.213437967002392 15.207343863323333 4.356831379234789 5.4866041615605337 2.3226033449172965 4.6774542741477489 3.7608513645827761 1.0184313524514426 1.3473528847098344 2.1611051596701145 5.1766182482242584 1.0928858332335938 13.317689791321756 1.4392280299216498 6.0814007855951813 4.3010607361793509 1.1195042319595803 46.949492536485195 1.3770750910043714 1.246490530669689 6.3297776822000671 2.5451724287122488 3.919600928202275 5.8469053804874465
leaf_count=824 237 189 88 5 16 18 17 108 37 42 10 87 34 15 28 96 24 20 378 25 235 25 15 1756 9 33 260 27 150 192
internal_value=-0.0012587 -0.0137879 0.0173464 -0.0362626 0.0204994 0.0178215 0.00485424 0.029603 0.001729 -0.00551129 0.0256402 0.00650359 -0.0190078 -0.0138736 -0.0359841 0.0196739 0.0354259 -0.0172842 -0.0298676 0.0197758 -0.0185307 0.0526511 -0.0196676 -0.0263113 -0.00798942 0.00271138 0.0194539 0.0593808 0.00588174 -0.0298306
internal_weight=194.808 123.622 17.7503 5.77266 71.1865 68.0198 32.3806 35.6392 16.1308 28.457 12.4867 10.1641 105.872 81.2876 24.584 3.50846 9.53345 77.5267 15.9704 2.65267 76.4339 19.5084 75.4154 48.069 27.3464 21.265 14.041 7.71126 5.16609 7.22398
internal_count=5000 3976 282 194 1024 1008 577 431 298 559 139 129 3694 2746 948 124 61 2712 420 42 2692 133 2677 1771 906 671 470 210 183 201
is_linear=0
shrinkage=0.05


Tree=24
num_leaves=31
num_cat=0
split_feature=5 3 1 3 4 1 3 1 3 1 4 5 5 1 4 5 4 5 1 4 5 1 1 3 4 2 2 4 1 1
split_gain=19.4855 7.41709 10.9924 4.09003 3.93033 5.06169 3.54637 9.73295 8.22402 9.00648 8.08731 7.92955 3.50641 3.2966 3.82753 4.1411 6.05411 3.87577 3.68932 4.89018 4.23712 5.69634 3.72167 3.60005 3.34865 2.95032 4.07476 2.7602 5.56861 2.73486
threshold=-0.070728757740205747 1.8397980072235687 -1.0902922816846106 2.2867153214566223 0.22923322993054188 2.0398470086521105 -0.44370749283033462 -1.6104433596904577 -1.8126497174231766 0.51015377974596665 0.72734807854500561 1.0221411040653336 0.037450659246797698 -2.8604101392827075 0.17972145358173711 -2.695582991387202 -2.6768160046985674 -0.82059772994821978 -1.0651959544611305 -0.41345136552062234 -0.68392191934933211 -1.0902922816846106 -1.851710263228493 0.87663531974628106 -3.0662226609204972 0.92111024571742572 0.99939512684301135 2.1007447161012265 0.33929943353196351 -1.5615725516368455
decision_type=2 2 2 2 2 2 2 2 2 2 2 2 2 2 2 2 2 2 2 2 2 2 2 2 2 2 2 2 2 2
left_child=1 4 -3 6 13 -6 8 -8 9 -2 25 12 -12 -1 15 16 -15 -16 19 20 21 24 -22 -24 -17 -9 -27 28 -13 -26
right_child=3 2 -4 -5 5 -7 7 10 -10 -11 11 27 -14 14 17 18 -18 -19 -20 -21 22 -23 23 -25 29 26 -28 -29 -30 -31
leaf_value=-0.051563923085803237 -0.05222073997353515 -0.052523945469789758 0.042856099828994881 0.08168569892134088 -0.03747810157451005 0.068474561537951242 0.074589452455021507 -0.047848828273815501 0.04651204806210997 0.032207479548324598 0.075399049298639303 0.08142709189777389 -0.037308257466896443 -0.017774336368002595 0.12272387852187819 0.097750006058903091 0.085062832120748944 -0.0099648227064189441 -0.027002637237550437 -0.038134526915508865 0.12879996544518577 0.13083661822849371 -0.032731130906290616 0.092174931779846384 -0.027847226028420238 0.092532506140452497 -0.030994693463450587 0.091412484365118396 -0.0152389109016135 0.011705724210617047
leaf_weight=4.9333253782242528 5.4745346996933204 4.0586906597018233 11.812476739287375 2.5619875341653815 29.172025116160516 1.1725357174873341 4.3900497108697882 9.8499742522835749 22.514740517362952 7.467499990016222 0.78838934190571208 2.8605921864509565 5.5340330917388201 3.1370927542448044 1.0879730731248858 0.74457792937756551 2.6318257972598067 1.1136848628520954 31.904118701815609 7.3386362269520715 1.2387802340090277 0.79163149744272487 1.3244158346205943 1.0220457278192041 9.957148369401704 0.97796527296304647 2.1036323364824057 2.7781559824943542 3.1091102715581656 7.7891556452959678
leaf_count=195 218 157 89 12 1364 6 21 265 164 49 32 13 146 34 17 3 19 28 1147 269 11 15 27 18 359 11 48 13 32 218
internal_value=-0.00124955 -0.0134001 0.0184648 0.0196707 -0.0182002 -0.033384 0.017329 0.00536927 0.028255 -0.00350601 -0.00548287 0.0194082 -0.023254 -0.0120581 -0.0092771 -0.0113815 0.0291408 0.0556047 -0.0151453 -0.00262155 0.00877514 -0.000505347 0.0586884 0.0216741 -0.00612836 -0.0344906 0.00820748 0.0502418 0.031082 -0.0104868
internal_weight=191.641 121.23 15.8712 70.4107 105.359 30.3446 67.8487 32.3919 35.4568 12.942 28.0019 15.0703 6.32242 75.0144 70.0811 67.8794 5.76892 2.20166 62.1105 30.2064 22.8678 19.2825 3.58524 2.34646 18.4909 12.9316 3.0816 8.74786 5.9697 17.7463
internal_count=5000 3976 246 1024 3730 1370 1012 581 431 267 560 236 178 2360 2165 2120 53 45 2067 920 651 595 56 45 580 324 59 58 45 577
is_linear=0
shrinkage=0.05


Tree=25
num_leaves=31
num_cat=0
split_feature=5 3 1 3 4 1 3 1 3 1 4 4 1 3 0 5 1 4 1 5 4 5 2 3 1 4 3 3 4 4
split_gain=17.8637 6.8259 10.0439 3.81744 3.77991 4.73775 3.45107 8.62275 4.88027 8.38439 4.73665 3.96718 7.35187 3.94299 3.67064 3.25874 3.72728 7.13456 3.18322 3.46962 3.69197 3.09888 3.02906 2.93407 3.92856 4.16651 9.63618 5.59108 4.29691 6.74522
threshold=-0.070728757740205747 1.8397980072235687 -1.0902922816846106 1.946036493234967 0.22923322993054188 2.0398470086521105 0.37975549353323013 -0.51533861849328466 -1.8126497174231766 0.51015377974596665 2.6750968358526315 -0.30064446535992106 -1.2468096986957098 -0.70843760008674739 -0.6365750874159668 1.0221411040653336 0.5362599988701493 2.0675121206589782 -2.8604101392827075 -2.8243174774479152 0.17972145358173711 -0.82059772994821978 0.38210516654957244 -2.4163243551135394 0.13359482320797569 -1.3413749887776143 -1.1976222396319831 -0.016006280931080249 -0.41345136552062234 -0.51910544748510623
decision_type=2 2 2 2 2 2 2 2 2 2 2 2 2 2 2 2 2 2 2 2 2 2 2 2 2 2 2 2 2 2
left_child=1 4 -3 6 18 -6 8 14 9 -2 -9 12 -10 22 -8 -15 -17 -18 -1 -20 23 -22 -13 -21 25 26 -25 -27 29 -29
right_child=3 2 -4 -5 5 -7 7 10 11 -11 -12 13 -14 15 -16 16 17 -19 19 20 21 -23 -24 24 -26 27 -28 28 -30 -31
leaf_value=-0.051486394308742203 -0.052117361205012216 -0.052404285926215155 0.040300068331934204 0.073907418083488649 -0.036935384834146545 0.067258564026057649 0.10270179775993023 -0.039355614038082506 0.097229062632341351 0.030368004942881634 0.074391182211315965 0.036238861417434536 -0.024137283540795373 -0.0065028058258055068 0.019377257201239752 0.077685803257261113 -0.035856116738921827 0.078670870535505033 0.036984296486223193 0.056268694807605393 0.10689210180274172 -0.0095480382183115997 0.083846259523009475 0.12019514356107107 -0.042691952659645233 -0.041807207321916465 -0.0029788055447707057 0.0053374805545193986 -0.028119649177338425 0.13178517692012237
leaf_weight=4.699612306430935 5.217607541009782 3.8693391196429721 11.930451022461055 3.015806406736373 28.146790284663442 1.1349994987249363 1.8653664141893385 10.169648379087446 1.5679923817515371 7.5223755352199078 1.005750499665736 6.4442840833216888 6.110249867662783 5.6243778355419698 4.5349875222891596 4.0767493918538076 3.0842282976955175 2.4322355687618256 3.878588516265153 1.453005202114581 1.183930726721883 1.1044258158653963 6.9386897888034582 1.7243224456906343 11.001794097945092 16.066870123147961 20.060959657654159 5.3629060983657837 5.9926800150424366 1.3128470759838817
leaf_count=195 218 157 89 16 1364 6 18 288 8 49 11 43 95 110 58 22 35 11 31 27 17 28 42 14 449 739 556 104 174 26
internal_value=-0.00123139 -0.0130065 0.0175969 0.0188853 -0.0176953 -0.0328967 0.0163936 -0.00261506 0.0232092 -0.00341354 -0.0291188 0.0325583 0.000647231 0.0411253 0.043662 0.0237152 0.0414317 0.0146394 -0.0116672 -0.00896068 -0.0116912 0.0506948 0.0609219 -0.0139581 -0.0156167 -0.00972054 0.00677051 -0.022223 0.00261486 0.0302046
internal_weight=188.534 118.924 15.7998 69.6103 103.124 29.2818 66.5945 17.5758 49.0188 12.74 11.1754 36.2788 7.67824 28.6006 6.40035 15.2176 9.59321 5.51646 73.8419 69.1423 65.2637 2.28836 13.383 62.9754 61.5224 50.5206 21.7853 28.7353 12.6684 6.67575
internal_count=5000 3976 246 1024 3730 1370 1008 375 633 267 299 366 103 263 76 178 68 46 2360 2165 2134 45 85 2089 2062 1613 570 1043 304 130
is_linear=0
shrinkage=0.05


Tree=26
num_leaves=31
num_cat=0
split_feature=5 3 1 4 1 3 4 1 3 3 1 1 5 4 1 2 1 0 5 5 3 5 1 3 1 5 4 4 3 3
split_gain=16.3711 6.28096 9.19282 3.63063 4.435 3.58828 3.21342 7.40119 7.81843 5.70576 3.49566 3.07224 3.12977 3.27889 2.8613 2.64237 4.26813 2.53703 3.15538 2.52026 2.50832 5.37664 5.07197 3.84598 2.45281 4.53613 4.28031 4.25938 2.75139 5.68672
threshold=-0.070728757740205747 1.8397980072235687 -1.0902922816846106 0.22923322993054188 2.0398470086521105 2.2867153214566223 0.98761021185426545 -1.6104433596904577 -0.67985416913221552 -1.4759405759066564 0.48585200816651414 -2.8604101392827075 -2.8243174774479152 0.17972145358173711 -2.7797407165417996 1.7633496671825712 -1.3466401450776295 -1.3144084021568727 1.5201825929226644 -0.82059772994821978 0.023110660366924 1.3204911714620193 0.60896134724204498 -0.60914177804913516 -0.014661892716263778 -0.12671167641347095 -0.41345136552062234 -0.37755117363255314 1.0596973401244687 1.1981076577399545
decision_type=2 2 2 2 2 2 2 2 2 2 2 2 2 2 2 2 2 2 2 2 2 2 2 2 2 2 2 2 2 2
left_child=1 3 -3 11 15 6 7 -2 9 10 -9 -1 -13 14 -14 -5 -17 -10 -19 -15 22 -22 23 -8 26 27 28 -26 -16 -30
right_child=5 2 -4 4 -6 -7 20 8 17 -11 -12 12 13 19 24 16 -18 18 -20 -21 21 -23 -24 -25 25 -27 -28 -29 29 -31
leaf_value=-0.051412771313340669 0.061208852215960265 -0.052290166767548052 0.037930388398837035 -0.039593281594677412 0.066141901742377218 0.077590312644059856 -0.05251782674121519 -0.035773939797578806 0.035530489349689685 0.057686799052096061 0.018937491416131959 0.034658001048868389 0.085044579255656338 0.094309404217046214 -0.0083785703135646813 -0.051085973679006559 0.14616356117541626 -0.042070129748310023 0.017957772082422409 -0.0091455058778575002 -0.030461910593170688 0.047346101206117958 0.062865112461187492 0.040582774497414063 -0.047364118415376369 0.089741410375312872 -0.037896897516389721 0.1058507715573937 0.10201763166624872 0.00048668229783143627
leaf_weight=4.476649545133113 5.6274093724787226 3.6884593069553366 12.039113534614442 26.065466055646546 1.0974065363407124 2.4460011869668952 2.0001172721385947 4.2641131710261133 1.5457325205206878 6.8535978440195313 9.2588085662573558 3.9305891860276452 0.72782716527581115 1.2723124194890263 30.611104987561696 0.59808807075023651 0.50650355592369922 12.653025303035973 2.6472104974091062 1.0956147592514742 4.2936826199293119 4.5977270491421223 10.223459027707575 2.4905789121985471 11.584187302738426 0.69794601388276234 10.444830317050217 0.4720985870808353 1.8316178452223528 5.5825341027230024
leaf_count=195 56 157 89 1312 6 12 88 127 31 56 67 31 26 17 1032 29 23 307 40 28 138 29 51 22 503 16 384 10 25 93
internal_value=-0.00121148 -0.01262 0.0167717 -0.0171971 -0.0324031 0.0181151 0.015926 0.00776543 -0.000314304 0.0205215 0.00168562 -0.0112868 -0.0086549 -0.0113017 -0.0135088 -0.0363834 0.0393616 -0.0255168 -0.0316842 0.0464419 0.0307395 0.00977243 0.0434093 -0.000883429 -0.0146804 -0.0341901 -0.00954671 -0.0413645 -0.00175944 0.0255692
internal_weight=185.624 116.722 15.7276 100.995 28.2675 68.9015 66.4555 42.8499 37.2225 20.3765 13.5229 72.7273 68.2507 64.3201 61.9521 27.1701 1.10459 16.846 15.3002 2.36793 23.6056 8.89141 14.7142 4.4907 61.2243 12.7542 48.4701 12.0563 38.0253 7.41415
internal_count=5000 3976 246 3730 1370 1024 1012 684 628 250 194 2360 2165 2134 2089 1364 52 378 347 45 328 167 161 110 2063 529 1534 513 1150 118
is_linear=0
shrinkage=0.05


Tree=27
num_leaves=31
num_cat=0
split_feature=5 3 1 4 1 5 4 1 2 3 5 4 4 1 5 4 4 0 4 2 1 3 4 0 1 4 3 4 0 1
split_gain=14.9967 6.57856 6.03373 4.6055 4.52178 4.0034 4.56914 6.62372 3.83405 5.74684 4.94661 4.92322 8.00305 5.10129 5.66874 4.04963 7.23249 5.24753 5.04949 3.79679 3.63229 3.0403 2.92585 4.23348 2.90786 5.01863 5.18193 4.93927 6.19339 4.67805
threshold=0.37260028046147436 2.5477862406732483 1.9072505192848312 -0.4258326539046467 -2.5478035263120833 -2.8243174774479152 -2.6768160046985674 -1.8676266662730088 0.97073703298207348 0.40788982621096548 1.0000000180025095e-35 -0.478478084186167 -0.5005034425070275 -2.3757479499479603 -1.3742713351439033 -1.4735610010090279 -0.18401080789856514 0.63091396382308174 1.1249247787562247 2.3827424624243485 1.3287518154704874 1.7848192024385747 1.3132682884559175 0.16418587679213661 -0.45497168284565492 -1.3796866836501238 -0.16794526762390768 -1.9413548027231868 0.50442093940723509 -0.58667997990515353
decision_type=2 2 2 2 2 2 2 2 2 2 2 2 2 2 2 2 2 2 2 2 2 2 2 2 2 2 2 2 2 2
left_child=1 2 4 -4 -1 6 -6 -8 11 10 19 12 13 14 -7 -11 -17 -18 -19 -10 21 -13 23 -23 25 26 27 -15 -29 -28
right_child=-2 -3 3 -5 5 8 7 -9 9 15 -12 20 -14 24 -16 16 17 18 -20 -21 -22 22 -24 -25 -26 -27 29 28 -30 -31
leaf_value=-0.043219931471235741 0.02220312201534673 0.042258228141219344 -0.025034261006795039 0.073009332947383321 -0.024603529155024142 -0.015235517542213249 -0.051325966684348058 0.10443129180414995 -0.051303040442302952 -0.05373958453416329 0.073726791397608432 -0.039467820511606133 0.16810736869692069 0.090311564297865368 0.16422980162780335 0.088390729186527572 -0.022348625438819773 0.0059260021711899629 0.19763286336762581 0.075073120568277821 0.051784658937958708 0.079619616738797416 -0.054332434946036318 -0.022356903292190609 -0.030721643511256738 -0.026528629610658036 -0.021762560131075248 -0.051508982429738497 0.14993909834913502 0.093176957894407858
leaf_weight=12.392122766934333 49.844729587435722 5.77247729897499 1.8139243945479391 3.5262927412986746 2.4244660157710314 0.88419328443706036 0.91917645744979415 2.6516298726201049 6.7192971892654914 1.3190919142216433 1.0958811566233633 33.289334295317531 0.64564203657209773 3.5582883395254612 0.87589868903159984 4.3439608849585047 4.571834919974207 0.80010724440216996 0.6018757913261652 0.65199715644121159 1.2862703464925278 1.8176822699606408 1.7686982173472641 2.3125770092010498 14.614101907238362 12.039799099788073 7.2778328433632842 1.6697615794837486 0.4945464078336953 1.0078401267528487
leaf_count=598 589 32 63 19 21 27 45 24 296 32 30 1530 13 29 17 44 166 19 27 8 10 37 46 32 562 406 175 64 16 23
internal_value=-0.00119106 -0.00994891 -0.0123149 0.0397066 -0.0145914 -0.0113556 0.0283699 0.0643372 -0.0136535 0.00594999 -0.0253895 -0.018371 -0.00660427 -0.00926328 0.0740743 0.0287531 0.0392995 0.00360199 0.0882264 -0.040125 -0.0308916 -0.0336053 -0.000521546 0.0225219 -0.0128706 -0.00285539 0.0174912 0.0540836 -0.00547791 -0.00778172
internal_weight=182.991 133.147 127.374 5.34022 122.034 109.642 5.99527 3.57081 103.647 20.104 8.46718 83.5425 43.0679 42.4223 1.76009 11.6369 10.3178 5.97382 1.40198 7.37129 40.4746 39.1883 5.89896 4.13026 40.6622 26.0481 14.0083 5.7226 2.16431 8.28567
internal_count=5000 4411 4379 82 4297 3699 90 69 3609 622 334 2987 1332 1319 44 288 256 212 46 304 1655 1645 115 69 1275 713 307 109 80 198
is_linear=0
shrinkage=0.05


Tree=28
num_leaves=31
num_cat=0
split_feature=5 1 5 4 3 5 4 1 3 2 5 3 1 3 1 4 4 1 3 1 3 5 1 3 1 1 5 5 1 3
split_gain=13.6841 5.67147 6.84351 10.1464 6.27958 5.40124 6.64303 4.52097 3.37304 2.94807 2.87085 3.56501 7.43505 5.08844 7.16106 3.77374 3.75255 6.89977 3.3711 3.92441 3.07039 3.8088 3.0861 3.00867 5.29022 2.8071 2.70091 2.62678 2.51242 2.42976
threshold=-0.070728757740205747 -1.8823183988065664 -0.66944260445911474 0.057192019909475096 1.8397980072235687 -2.695582991387202 -2.6768160046985674 -0.28344972947773212 1.946036493234967 2.3827424624243485 2.3115810247782576 0.37975549353323013 -0.51533861849328466 -1.8126497174231766 0.51015377974596665 2.6750968358526315 -0.16872710273236333 -1.4190236210767664 1.0995316475359591 -1.6104433596904577 -0.67985416913221552 1.3896233741485196 0.64080151041026057 -0.78204734579865309 0.80617553551778132 -0.8612105835147229 -0.76209195192792201 1.5201825929226644 1.7735146521925313 -2.5839176284700671
decision_type=2 2 2 2 2 2 2 2 2 2 2 2 2 2 2 2 2 2 2 2 2 2 2 2 2 2 2 2 2 2
left_child=1 2 -1 -4 5 6 -3 26 10 29 11 13 18 14 -2 27 17 -15 19 -13 -18 22 25 24 -19 -22 -6 -14 -16 -7
right_child=8 4 3 -5 7 9 -8 -9 -10 -11 -12 12 15 16 28 -17 20 23 -20 -21 21 -23 -24 -25 -26 -27 -28 -29 -30 -31
leaf_value=-0.043200697833204203 -0.051997450610919808 -0.01638983630510087 0.11222754125473307 -0.051015799591656558 -0.024985187889852059 0.064125757346028753 0.092725925449944679 0.051212829595337121 0.069937665688819345 0.065611451956378672 -0.047084772478413306 0.058431578988166505 -0.052415064750799704 0.10463386684242811 0.0015796626371482611 0.07254532111986213 0.060063665758613563 0.058765831908785732 0.089075454553468547 -0.041485552808012721 0.062446793841382277 0.060712466579431627 0.038273524032242573 -0.055462147154710477 -0.056510335157747171 -0.039490349862303868 0.057709117865855308 0.011230263164304376 0.059974199328795434 -0.017906327436035371
leaf_weight=21.978132783435289 4.8351951614022237 2.9218503348529339 1.87604740448296 1.9323041420429943 4.6106113540008664 0.91527225077152152 2.6690269019454709 7.5628983974456769 2.8297984749078742 1.103762438520788 1.8578422181308258 2.1107107549905781 7.4951184466481173 1.4127382040023801 4.4276169575750828 0.82920163497328836 12.540287142619485 2.4050169009715319 2.2059033066034317 1.8389141783118272 0.81806386448442303 4.954037692397832 3.951420309022069 2.9017013721167988 1.6978828236460684 3.8714141938835533 1.2565092220902441 2.0686162151396275 3.1542194224894047 65.637721283361316
leaf_count=1008 218 28 37 103 87 14 28 43 16 19 16 10 260 6 30 10 78 31 21 44 13 32 43 57 23 73 11 24 19 2598
internal_value=-0.00117646 -0.0118926 -0.0324784 0.0294002 -0.00576835 -0.011531 0.0357009 0.0256614 0.0164934 -0.0154341 0.01418 0.0159719 -0.0039844 0.023003 -0.00444969 -0.0297771 0.0328686 0.00383382 0.0395637 0.011911 0.0422198 0.0257602 0.00572125 -0.0164963 0.0110617 -0.0217078 -0.00727528 -0.0386487 0.0258731 -0.0167782
internal_weight=180.67 112.464 25.7865 3.80835 86.6777 73.2476 5.59088 13.43 68.2057 67.6568 65.3759 63.5181 16.5485 46.9696 12.417 10.3929 34.5526 8.41734 6.15553 3.94962 26.1352 13.5949 8.6409 7.0046 4.1029 4.68948 5.86712 9.56373 7.58184 66.553
internal_count=5000 3976 1148 140 2828 2687 56 141 1024 2631 1008 992 369 623 267 294 356 117 75 54 239 161 129 111 54 86 98 284 49 2612
is_linear=0
shrinkage=0.05


Tree=29
num_leaves=31
num_cat=0
split_feature=5 1 3 1 4 5 4 4 2 4 3 5 4 4 0 4 4 1 1 3 2 1 4 3 4 1 4 0 4 3
split_gain=12.6514 5.71949 5.67522 4.61921 4.21856 3.36928 4.17668 3.61187 3.55424 8.77571 5.58424 4.20048 4.06207 3.72014 3.54721 3.34865 6.66103 4.56649 3.89798 3.27875 3.11065 2.70999 4.58783 4.66073 4.41346 5.89957 4.22129 5.25151 3.97055 3.12627
threshold=0.37260028046147436 -2.5478035263120833 2.5477862406732483 1.9072505192848312 -0.4258326539046467 -2.8243174774479152 -3.7026047015482475 2.2852521596715487 0.97073703298207348 1.892223208027352 0.57835048596778427 1.0000000180025095e-35 -0.18401080789856514 -1.3614440259349463 1.0454296703893367 -0.478478084186167 -0.5005034425070275 -2.3757479499479603 1.3287518154704874 1.7848192024385747 2.3827424624243485 -0.45497168284565492 -1.3796866836501238 -0.16794526762390768 -1.9413548027231868 -0.96239473503172712 -1.9413548027231868 0.50442093940723509 -1.4375739640272476 -0.27220018915880889
decision_type=2 2 2 2 2 2 2 2 2 2 2 2 2 2 2 2 2 2 2 2 2 2 2 2 2 2 2 2 2 2
